tree
version=v4
num_class=1
num_tree_per_iteration=1
label_index=0
max_feature_idx=68
objective=regression
feature_names=year month quarter is_holiday is_launch_month search_volume social_engagement sentiment_score competitor_activity price_index day_of_month day_of_year week_of_year is_quarter_start is_quarter_end is_year_start is_year_end month_sin month_cos quarter_sin quarter_cos sales_units_lag_1 sales_units_lag_2 sales_units_lag_3 sales_units_lag_6 sales_units_lag_12 sales_units_rolling_mean_3 sales_units_rolling_std_3 sales_units_rolling_min_3 sales_units_rolling_max_3 sales_units_rolling_mean_6 sales_units_rolling_std_6 sales_units_rolling_min_6 sales_units_rolling_max_6 sales_units_rolling_mean_12 sales_units_rolling_std_12 sales_units_rolling_min_12 sales_units_rolling_max_12 sales_units_mom_growth sales_units_mom_diff sales_units_yoy_growth sales_units_yoy_diff sales_units_momentum_3m sales_units_momentum_6m sales_units_cv_3m sales_units_cv_6m sales_units_range_3m sales_units_same_month_ly sales_units_seasonal_avg sales_units_seasonal_ratio search_volume_lag_1 search_volume_rolling_mean_3 search_volume_growth social_engagement_lag_1 social_engagement_rolling_mean_3 sentiment_lag_1 sentiment_rolling_mean_3 competitor_activity_lag_1 price_index_lag_1 price_change search_sentiment_interaction holiday_search_interaction launch_sentiment_interaction price_search_interaction brand_total_sales product_share_of_brand product_rank_in_brand sales_units_cumsum sales_units_cumsum_ma_3
feature_infos=[2018:2023] [1:12] [1:4] [0:1] [0:1] [0:79.951957135364566] [3167.1096393619641:24308.627040233401] [0.2021330705433004:1] [3.0002641346614838:7.9975259485425827] [0.3950961947542671:2.0635972491591281] none [1:335] [1:53] [0:1] [0:1] [0:1] [0:1] [-1:1] [-1:1] [-1:1] [-1:1] [18:31034] [18:31034] [18:31034] [18:31034] [18:31034] [35:26487.666666666668] [0:11828.005706796055] [18:20719] [54:31034] [49.666666666666657:23016.166666666668] [0:11045.025480580234] [18:18161] [86:31034] [76:19969.25] [1.5:8905.0437887069293] [18:14335] [100:31034] [-0.93255813953488376:6.4888888888888889] [-17276:15406] [-0.90555555555555556:15.014705882352942] [-16722:23969] [-26447:13550] [-13978:16719] [0:1.182920115646023] [0:0.92779952497980045] [0:23467] [18:31034] [86.666666666666671:28949.200000000001] [0.079100426521907699:2.0474340625638932] [0:79.951957135364566] [3.956717376523962:70.608953687000721] [-1:126.11274099170906] [3167.1096393619641:24308.627040233401] [3170.2373611493817:18209.54699954181] [0.2021330705433004:1] [0.31013000574639538:0.84967213316461432] [3.0002641346614838:7.9975259485425827] [0.3950961947542671:2.0635972491591281] [-0.57709143618746217:1.7824051627763411] [0:66.710537421294788] [0:79.951957135364566] [0:0.89345980131026481] [0:88.110320108360966] [423:49098] [0.018018018018018001:0.84612663600990445] [1:5] [100:1052791] [100:1023218]
tree_sizes=3307 3070 3044 3212 3229 3380 3058 3222 3063 3366 3196 3448 3353 3050 3581 3121 2976 3061 3047 3270 3041 2877 3261 3037 3499 3192 3325 2781 2853 3094 3492 3014 2939 3177 2932 3588 3102 3088 3252 2947 2944 2867 3094 2782 3255 3327 2856 2846 2928 2864 2785 3263 2856 2765 2840 3168 2622 2620 3314 3099 2999 1982 1720 2662 1963 1959 1892 1951 1971 1874 1967 2049 2133 2054 2056 2049 2056 1477 2051 2273 1964 2207 1957 1409 2272 1967 1087 1078 1473 1639 1400 1885 1075 1323 1497 1482 1316 1164 1159 1395 1149 1567 1407 1150 2371 1548 1403 1076 1482 2604 1319 1231 1636 1641 2306 1236 1400 1322 1318 1228 1168 1329 1319 1307 1072 1311 1074 1070 1072 1072 1234 1077 1155 1412 1154 1326 1159 1077 986 1069 1078 1154 997 1074 1079 920 1071 1233 1157 912 1063 908 987 1075 994 915 909 1155 914 1076 827 1070 992 831 915 913 913 837 993 911 910 1165 830 912 993 837 919 919 914 835 989 1071 1001 837 835 833 913 916 908 836 833 837 915 913 998 989 835 916 918 1075

Tree=0
num_leaves=39
num_cat=0
split_feature=33 48 50 28 48 50 49 48 48 28 28 49 49 33 49 48 49 48 28 49 49 49 48 49 49 48 48 49 48 48 28 39 49 28 49 48 39 49
split_gain=1.56985e+10 1.46184e+09 1.20526e+09 3.2358e+08 1.33087e+08 5.65147e+07 4.87648e+07 4.54911e+07 2.38085e+07 2.15438e+07 1.45117e+07 1.18644e+07 1.16401e+07 7.29443e+06 7.20575e+06 4.63022e+06 4.18918e+06 3.91456e+06 3.04053e+06 2.91342e+06 1.92248e+06 1.77959e+06 1.46385e+06 1.38753e+06 1.27963e+06 1.25899e+06 875610 862181 670292 651098 550000 493350 388435 274006 205190 192306 183943 48451.4
threshold=9383.5000000000018 1816.7500000000002 42.675615772641038 2878.0000000000005 791.33333333333337 41.902635906810168 0.69982787837921778 2396.8333333333335 411.25000000000006 1011.5000000000001 3908.5000000000005 1.0753515847622563 0.98497443412045105 3500.0000000000005 0.85164654508091464 1164.1666666666667 1.0638088862953332 3191.916666666667 198.50000000000003 0.9901581966458145 0.92748042097341721 0.60319225729507508 603.41666666666686 1.1731653094542471 1.170337255806799 1563.4166666666667 1523.3333333333337 0.76561564467453302 600.83333333333348 1042.3333333333337 279.50000000000006 32.500000000000007 1.1220139075727149 118.00000000000001 1.1333626227123987 230.5 72.500000000000014 1.1201194786934712
decision_type=2 2 2 2 2 2 2 2 2 2 2 2 2 2 2 2 2 2 2 2 2 2 2 2 2 2 2 2 2 2 2 2 2 2 2 2 2 2
left_child=1 4 -2 6 8 10 -3 11 18 14 -5 20 17 -14 21 24 26 -9 31 27 -8 -6 37 -13 -16 -18 -11 -10 -29 -23 36 33 -24 -1 -32 -33 -20 -21
right_child=2 3 -4 5 9 -7 7 12 19 16 -12 23 13 -15 15 -17 25 -19 30 22 -22 29 32 -25 -26 -27 -28 28 -30 -31 34 35 -34 -35 -36 -37 -38 -39
leaf_value=1808.4793930452486 2239.8836089683568 1841.6737692511249 2523.0786581819671 1912.1170246241959 1818.7758932283539 1971.2952522807395 1857.419643989386 1879.449394472394 1816.0829644738199 1843.2730432280241 1943.1915359023913 1875.6035248732248 1895.1047385673726 1917.2175930452486 1833.9643944974644 1849.2404657837596 1853.6893940537591 1896.1758936861177 1813.3909719926169 1821.989514996468 1866.6639061991621 1826.0017843495964 1826.8712680452484 1885.8135943269867 1842.3798946474212 1863.8808939793726 1850.8307577219841 1818.8910597119152 1823.3259423410232 1833.2207578884436 1816.0453021361575 1811.201137231295 1830.961691332305 1810.6333119641674 1819.4733930452485 1814.3623240797313 1816.5629644738199 1823.7615359023914
leaf_weight=102 38 32 21 38 20 35 40 34 35 37 21 23 29 25 87 28 24 20 76 41 41 23 48 25 20 20 22 54 71 22 33 43 37 111 30 29 21 21
leaf_count=102 38 32 21 38 20 35 40 34 35 37 21 23 29 25 87 28 24 20 76 41 41 23 48 25 20 20 22 54 71 22 33 43 37 111 30 29 21 21
internal_value=1861.2 1841.25 2340.68 1893.18 1823.38 1941.09 1876.44 1881.13 1816.62 1840.17 1923.18 1869.1 1895.49 1905.34 1834.43 1838.38 1851.32 1885.64 1812.19 1823.05 1862.1 1826.22 1826.1 1880.92 1835.54 1858.32 1846.09 1820.24 1821.41 1829.53 1815.5 1810.33 1828.65 1809.6 1817.68 1812.47 1814.08 1822.59
internal_weight=1477 1418 59 363 1055 94 269 237 752 303 59 129 108 54 200 135 103 54 445 307 81 65 147 48 107 44 59 160 125 45 160 285 85 213 63 72 97 62
internal_count=1477 1418 59 363 1055 94 269 237 752 303 59 129 108 54 200 135 103 54 445 307 81 65 147 48 107 44 59 160 125 45 160 285 85 213 63 72 97 62
is_linear=0
shrinkage=1


Tree=1
num_leaves=35
num_cat=0
split_feature=29 26 64 26 28 26 48 39 28 38 29 29 38 26 39 39 26 29 26 38 26 48 29 39 39 40 38 29 29 26 29 39 28 26
split_gain=1.47707e+10 1.40544e+09 1.11358e+09 2.4683e+08 1.99769e+08 4.31008e+07 2.83511e+07 2.82961e+07 2.16884e+07 1.86022e+07 1.78198e+07 1.30038e+07 7.45598e+06 5.85416e+06 5.07338e+06 4.66794e+06 4.3922e+06 3.18223e+06 3.09133e+06 2.74216e+06 2.27559e+06 1.88225e+06 1.37945e+06 1.37383e+06 1.15469e+06 715517 681643 530172 527033 441090 295294 170575 143139 81881.7
threshold=9383.5000000000018 2152.3333333333335 30265.000000000004 1018.3333333333335 3230.0000000000005 461.50000000000006 4977.2500000000009 436.50000000000006 2315.5000000000005 -0.34637169010282459 1741.0000000000002 3500.0000000000005 -0.25219107356204123 714.16666666666686 225.00000000000003 96.500000000000014 251.66666666666669 2258.0000000000005 3280.0000000000005 -0.25219107356204123 1741.0000000000002 2266.5000000000005 1523.0000000000002 84.500000000000014 253.50000000000003 -0.20985410288131254 -0.15800986647760831 1298.5000000000002 419.50000000000006 167.33333333333334 728.00000000000011 31.500000000000004 230.50000000000003 112.50000000000001
decision_type=2 2 2 2 2 2 2 2 2 2 2 2 2 2 2 2 2 2 2 2 2 2 2 2 2 2 2 2 2 2 2 2 2 2
left_child=1 3 -2 5 7 16 15 8 12 -5 22 -9 -3 23 20 -6 29 -16 -10 -15 -12 -14 27 25 -21 -7 32 -11 -28 33 -25 -31 -18 -1
right_child=2 4 -4 9 6 13 -8 11 18 10 14 -13 21 19 17 -17 26 -19 -20 24 -22 -23 -24 30 -26 -27 28 -29 -30 31 -32 -33 -34 -35
leaf_value=-51.304015731811525 368.2083324231599 -6.1973721742630001 640.41936244419639 -28.771063893636068 67.382450110394018 -43.301666365913718 119.79729730224608 32.654660260881691 28.754455731366129 -21.154281881581181 -11.680234169960022 59.57110394287109 10.583608875274658 -38.641283642578124 1.9856333534717558 86.945504847935268 -48.865333007812495 15.315102068583171 42.95507895729758 -29.255726912649052 -0.28474429428577425 22.633582077026368 -10.056578669828527 -35.019614675421458 -22.640848220825195 -37.571018364698368 -44.552198470266241 -15.595676899362118 -41.113954489315255 -48.882370366635527 -30.999898744780442 -46.628444986979162 -45.358629039417615 -49.897076429731385
leaf_weight=64 38 20 21 36 23 23 20 35 37 23 24 30 28 25 40 21 20 27 22 114 46 20 34 38 30 133 76 47 85 92 29 45 22 89
leaf_count=64 38 20 21 36 23 23 20 35 37 23 24 30 28 25 40 21 20 27 22 114 46 20 34 38 30 133 76 47 85 92 29 45 22 89
internal_value=-2.75666e-08 -19.3517 465.097 -33.3704 44.2798 -41.1058 90.1812 28.9794 20.7401 -8.65602 -5.65129 45.0776 9.19214 -33.6812 1.45627 76.7194 -47.0093 7.35721 34.0496 -29.4699 -4.19177 15.6044 -15.0141 -36.8728 -27.8776 -38.4159 -43.6249 -17.4221 -42.737 -49.3785 -33.2797 -48.142 -47.0285 -50.4856
internal_weight=1477 1418 59 1162 256 885 64 192 127 277 241 65 68 392 137 44 493 67 59 169 70 48 104 223 144 156 203 70 161 290 67 137 42 153
internal_count=1477 1418 59 1162 256 885 64 192 127 277 241 65 68 392 137 44 493 67 59 169 70 48 104 223 144 156 203 70 161 290 67 137 42 153
is_linear=0
shrinkage=0.03


Tree=2
num_leaves=35
num_cat=0
split_feature=29 26 64 26 28 26 48 39 28 28 39 29 22 26 42 49 26 28 26 39 39 29 39 39 48 28 39 41 26 29 48 28 39 26
split_gain=1.38977e+10 1.32238e+09 1.04776e+09 2.32242e+08 1.87963e+08 4.05535e+07 2.66756e+07 2.66238e+07 2.04067e+07 1.61373e+07 1.32162e+07 1.22352e+07 6.75201e+06 5.50817e+06 5.12705e+06 4.57699e+06 4.13262e+06 3.14301e+06 2.90863e+06 2.88071e+06 2.36159e+06 2.07799e+06 1.29481e+06 971892 881630 712322 609242 561509 415022 410001 378987 274258 160495 77042.7
threshold=9383.5000000000018 2152.3333333333335 30265.000000000004 1018.3333333333335 3230.0000000000005 461.50000000000006 4977.2500000000009 436.50000000000006 2315.5000000000005 1394.0000000000002 457.50000000000006 3500.0000000000005 2551.5000000000005 714.16666666666686 -15.499999999999998 1.0779449281847537 251.66666666666669 826.00000000000011 3280.0000000000005 225.00000000000003 -157.49999999999997 1613.5000000000002 40.500000000000007 253.50000000000003 2287.666666666667 1684.5000000000002 2.5000000000000004 -118.49999999999999 167.33333333333334 436.00000000000006 611.08333333333348 249.50000000000003 31.500000000000004 112.50000000000001
decision_type=2 2 2 2 2 2 2 2 2 2 2 2 2 2 2 2 2 2 2 2 2 2 2 2 2 2 2 2 2 2 2 2 2 2
left_child=1 3 -2 5 7 16 15 8 12 10 14 -9 24 22 17 -6 28 -5 -10 25 -15 -16 27 -22 -3 -11 31 -7 33 -28 -24 -18 -30 -1
right_child=2 4 -4 9 6 13 -8 11 18 19 -12 -13 -14 20 21 -17 26 -19 -20 -21 23 -23 30 -25 -26 -27 29 -29 32 -31 -32 -33 -34 -35
leaf_value=-49.764896850585934 357.16209170692844 12.371726463317872 621.20676618303571 -33.76610458374023 63.818528686523429 -42.368040161132811 116.20337878417969 31.675020577566961 27.89182255925359 -5.5889191770553586 2.481692823461584 57.783970031738278 -2.3824764086518968 -35.284119526631123 -15.752526783190275 83.250494384765616 -46.249615011776193 -19.472904947916668 41.666426613547578 8.43253281911214 -28.104284596162682 -5.3786100402832027 -35.466026916503907 -21.961622772216796 21.279405332565307 1.1277545462052025 -42.507808941340038 -36.891649141400777 -47.415900042989982 -38.83499655330882 -31.611569571659484 -42.866808378575215 -45.229590820312495 -48.400163587934514
leaf_weight=64 38 20 21 20 20 20 20 35 37 30 37 30 28 37 57 24 34 45 22 36 102 25 38 30 20 27 59 107 92 51 58 59 45 89
leaf_count=64 38 20 21 20 20 20 20 35 37 30 37 30 28 37 57 24 34 45 22 36 102 25 38 30 20 27 59 107 92 51 58 59 45 89
internal_value=6.07156e-08 -18.7712 451.144 -32.3692 42.9514 -39.8726 87.4758 28.11 20.1179 -8.39634 -13.5442 43.7253 8.91637 -32.6708 -17.578 74.4178 -45.5991 -23.8708 33.0281 1.78874 -28.5858 -12.5897 -35.7666 -26.7082 16.8256 -2.40734 -42.3161 -37.7541 -47.8971 -40.805 -33.1373 -44.1035 -46.6978 -48.971
internal_weight=1477 1418 59 1162 256 885 64 192 127 277 184 65 68 392 147 44 493 65 59 93 169 82 223 132 40 57 203 127 290 110 96 93 137 153
internal_count=1477 1418 59 1162 256 885 64 192 127 277 184 65 68 392 147 44 493 65 59 93 169 82 223 132 40 57 203 127 290 110 96 93 137 153
is_linear=0
shrinkage=0.03


Tree=3
num_leaves=37
num_cat=0
split_feature=37 26 50 26 28 26 48 39 28 50 29 29 39 26 39 50 26 21 29 39 28 29 48 28 39 50 39 26 26 48 29 29 28 29 39 50
split_gain=1.30802e+10 1.27028e+09 9.7602e+08 2.18517e+08 1.90786e+08 3.81568e+07 3.20149e+07 2.50608e+07 1.94164e+07 1.62349e+07 1.57297e+07 1.30708e+07 5.35421e+06 5.18264e+06 4.83301e+06 4.38288e+06 3.88839e+06 2.99379e+06 2.96452e+06 2.24887e+06 1.89999e+06 1.52365e+06 1.34774e+06 1.2821e+06 1.22664e+06 671020 575523 507569 390494 387497 382903 319028 287286 275693 151009 72508.4
threshold=11061.000000000002 2152.3333333333335 42.675615772641038 1018.3333333333335 3230.0000000000005 461.50000000000006 4977.2500000000009 380.50000000000006 2315.5000000000005 19.595135535392853 1741.0000000000002 3500.0000000000005 -557.49999999999989 714.16666666666686 -72.499999999999986 40.148526807578087 251.66666666666669 3420.0000000000005 2258.0000000000005 89.500000000000014 960.50000000000011 2991.5000000000005 1190.1666666666667 604.00000000000011 84.500000000000014 19.410150363727777 24.500000000000004 879.00000000000011 167.33333333333334 1878.0000000000002 1523.0000000000002 446.00000000000006 264.50000000000006 717.00000000000011 31.500000000000004 15.272139584951864
decision_type=2 2 2 2 2 2 2 2 2 2 2 2 2 2 2 2 2 2 2 2 2 2 2 2 2 2 2 2 2 2 2 2 2 2 2 2
left_child=1 3 -2 5 7 16 15 8 12 20 22 21 -3 24 29 -6 28 -10 -16 23 -5 -9 -11 -15 25 -7 32 -21 35 -12 -24 -28 -18 -26 -30 -1
right_child=2 4 -4 9 6 13 -8 11 17 10 14 -13 -14 19 18 -17 26 -19 -20 27 -22 -23 30 -25 33 -27 31 -29 34 -31 -32 -33 -34 -35 -36 -37
leaf_value=-49.139272809709823 348.87190489073055 -3.8355318248271941 604.93921316964281 -31.371602874755858 63.137921089504076 -39.393299124581468 117.20657087053571 24.467763671875002 25.549397691295994 -19.404263379496914 -9.333259393028591 55.802625555223031 14.173958895756648 -37.244429670061379 1.7887964004562016 82.094227294921879 -44.332457169242524 39.662639007568359 13.246808769226073 -25.250864670697382 -19.072477640005257 35.765123790394178 -13.829678217569986 -28.88185187798042 -33.251827170632097 -34.957474847090865 -40.966049780273437 -19.611920173645018 -45.993423236349358 -3.6235905738472933 -9.1520524324689596 -37.463469709916545 -41.213978794642856 -29.402586095473342 -43.87270402018229 -47.241410938609725
leaf_weight=21 37 24 21 20 23 42 21 21 31 31 23 31 39 21 63 21 46 24 30 51 26 22 36 77 33 114 50 20 92 20 28 44 63 34 45 132
leaf_count=21 37 24 21 20 23 42 21 21 31 31 23 31 39 21 63 21 46 24 30 51 26 22 36 77 33 114 50 20 92 20 28 44 63 34 45 132
internal_value=5.26635e-09 -18.0493 441.586 -31.3982 42.3062 -38.6765 86.7306 27.2667 18.6836 -8.14445 -4.90345 40.9532 7.3132 -31.6907 1.63942 72.1852 -44.2311 31.7079 5.48493 -27.7282 -24.4199 30.2478 -14.2701 -30.6738 -34.6936 -36.1517 -41.0466 -23.6624 -46.4602 -6.6776 -11.7832 -39.3265 -42.53 -31.2985 -45.2968 -47.5019
internal_weight=1477 1419 58 1162 257 885 65 192 118 277 231 74 63 392 136 44 493 55 93 169 46 43 95 98 223 156 203 71 290 43 64 94 109 67 137 153
internal_count=1477 1419 58 1162 257 885 65 192 118 277 231 74 63 392 136 44 493 55 93 169 46 43 95 98 223 156 203 71 290 43 64 94 109 67 137 153
is_linear=0
shrinkage=0.03


Tree=4
num_leaves=37
num_cat=0
split_feature=37 48 50 28 48 29 50 29 29 28 48 29 29 38 39 28 50 48 38 29 28 29 50 7 50 29 28 38 29 50 39 28 29 38 38 29
split_gain=1.23071e+10 1.16714e+09 9.18337e+08 2.69169e+08 1.04541e+08 5.07488e+07 3.54302e+07 3.67901e+07 1.91905e+07 1.64096e+07 1.05302e+07 9.21051e+06 6.50004e+06 5.80169e+06 5.27358e+06 3.41356e+06 3.29313e+06 2.77247e+06 1.89728e+06 1.67501e+06 1.49876e+06 1.32928e+06 1.11808e+06 1.09378e+06 856573 724485 560498 492508 324846 311557 229752 133582 121876 121132 112723 51397.4
threshold=11061.000000000002 1816.7500000000002 42.675615772641038 2878.0000000000005 803.91666666666674 5429.0000000000009 19.238243057961192 2805.5000000000005 436.00000000000006 1011.5000000000001 2305.3333333333335 4209.5000000000009 2290.5000000000005 0.011460063885333101 295.50000000000006 591.50000000000011 30.859597124365497 600.83333333333348 -0.0031743093386928495 1298.5000000000002 170.50000000000003 1806.5000000000002 18.532009883873535 0.55415419785077968 32.390816545044757 775.00000000000011 429.50000000000006 -0.10648517516718874 326.00000000000006 23.037963733928212 36.000000000000007 118.00000000000001 230.50000000000003 -0.10648517516718874 0.05903261778645106 241.50000000000003
decision_type=2 2 2 2 2 2 2 2 2 2 2 2 2 2 2 2 2 2 2 2 2 2 2 2 2 2 2 2 2 2 2 2 2 2 2 2
left_child=1 4 -2 6 8 11 -3 12 20 14 -9 -5 23 -12 15 -6 29 26 -14 -16 30 -18 -19 -8 -17 -24 27 -10 35 -11 31 -1 -32 -30 -28 -22
right_child=2 3 -4 5 9 -7 7 10 17 16 13 -13 18 -15 19 24 21 22 -20 -21 28 -23 25 -25 -26 -27 34 -29 33 -31 32 -33 -34 -35 -36 -37
leaf_value=-46.71132934570312 338.40574300405143 -19.114354968600804 586.7910407366071 44.385141522807459 -34.459873744419639 101.59238385368796 -5.1919223645925516 12.621935381889344 -41.222880001583611 -17.51007533482143 24.296472394219759 67.702881958007808 5.6391038859974252 40.879268554687499 -20.734505179268975 -26.930797139043392 -9.6290960958729617 -37.378464558919269 16.278183908462523 -9.1328115725517272 -43.965038566589357 -0.3448783296857561 -32.634881512810203 2.8465437116989722 -21.645750599736754 -28.529442147268373 -35.729800999418217 -36.898999855735084 -42.423898498535159 -12.506491107940672 -44.949103461371529 -45.058552386944115 -41.859287292480467 -39.72799157714843 -33.040738311767576 -42.499970647638492
leaf_weight=101 37 27 21 31 35 34 25 24 37 21 29 30 22 55 21 46 23 27 48 24 32 35 85 39 69 71 47 66 20 24 27 78 20 60 20 66
leaf_count=101 37 27 21 31 35 34 25 24 37 21 29 30 22 55 21 46 23 27 48 24 32 35 85 39 69 71 47 66 20 24 27 78 20 60 20 66
internal_value=-6.03791e-08 -17.5078 428.338 28.8121 -33.4893 72.2228 13.4811 17.1178 -39.4144 -18.4379 30.1471 55.8529 6.61664 35.1543 -23.5543 -26.2565 -8.75153 -34.3044 12.9345 -14.5469 -43.8794 -4.02655 -31.7419 -0.293482 -23.7598 -30.7664 -37.0629 -38.4522 -41.8204 -14.8415 -45.501 -45.9911 -43.6343 -40.402 -34.9271 -42.9784
internal_weight=1477 1419 58 364 1055 95 269 242 757 298 108 61 134 84 195 150 103 353 70 45 404 58 183 64 115 156 170 103 178 45 226 179 47 80 67 98
internal_count=1477 1419 58 364 1055 95 269 242 757 298 108 61 134 84 195 150 103 353 70 45 404 58 183 64 115 156 170 103 178 45 226 179 47 80 67 98
is_linear=0
shrinkage=0.03


Tree=5
num_leaves=39
num_cat=0
split_feature=29 26 64 26 26 26 26 48 26 38 38 38 49 29 39 29 29 38 29 30 48 38 49 26 49 28 39 29 48 29 49 29 38 28 48 29 49 64
split_gain=1.15818e+10 1.10193e+09 8.80022e+08 2.24675e+08 1.10869e+08 3.71681e+07 3.04626e+07 1.7931e+07 1.74118e+07 1.71069e+07 1.13079e+07 9.03393e+06 7.05583e+06 6.82508e+06 5.54861e+06 3.89978e+06 3.80374e+06 2.95647e+06 2.94678e+06 2.31127e+06 2.26885e+06 1.84579e+06 1.40152e+06 1.38579e+06 1.3768e+06 1.31284e+06 1.1773e+06 838609 803408 602127 483121 323884 307785 255420 218281 148329 113236 32082.2
threshold=9383.5000000000018 1763.666666666667 29589.000000000004 3423.166666666667 748.50000000000011 4914.8333333333339 2408.666666666667 1223.7500000000002 360.66666666666674 -0.17673775671405992 -0.23869278866278737 -0.12276534566820853 0.77683672554469663 4764.5000000000009 436.50000000000006 2164.0000000000005 1741.0000000000002 -0.098791973791973728 3500.0000000000005 2648.666666666667 600.83333333333348 0.0096514607648566526 1.2469349777647192 222.5 0.69982787837921778 656.00000000000011 241.50000000000003 775.00000000000011 853.00000000000011 1419.5000000000002 0.83227854676027746 505.00000000000006 -0.14888190524496636 792.00000000000011 144.75000000000003 355.00000000000006 0.7276946392865079 2213.0000000000005
decision_type=2 2 2 2 2 2 2 2 2 2 2 2 2 2 2 2 2 2 2 2 2 2 2 2 2 2 2 2 2 2 2 2 2 2 2 2 2 2
left_child=1 4 -2 6 8 11 10 17 23 -8 -3 -5 -9 -13 19 -12 29 25 -16 -11 30 -17 28 34 -22 -6 -18 -26 -19 -14 -10 -32 -25 -27 37 -34 -36 -1
right_child=2 3 -4 5 7 -7 9 12 20 14 15 13 16 -15 18 21 26 22 -20 -21 24 -23 -24 32 27 33 -28 -29 -30 -31 31 -33 35 -35 36 -37 -38 -39
leaf_value=-45.669324569702141 322.50175988790153 -14.171249729503284 562.09906161221591 41.323051620483398 -34.8261988896909 100.54007136418268 2.0379190431322369 -23.376663175310405 -39.731383244441105 18.334441325146219 1.5077786788814946 55.105433203125003 -14.757369090113146 78.6177978515625 32.520412819602271 5.4998537921905513 -6.2140179374001239 -26.625310424804685 48.431274353027341 31.069052439722519 -38.330551234654017 16.14242660522461 -13.823194335937499 -42.722028214738174 -31.650227324583817 -28.228415771484375 2.7453635783628982 -26.943989282226561 -20.718171701004255 -8.9838902942554366 -37.039426526521382 -34.123359545330665 -40.555436531442112 -23.433859542846676 -45.200869598388671 -38.351259301757807 -42.959375680239141 -44.58349709472656
leaf_weight=48 37 22 22 20 23 26 21 28 26 23 38 25 29 20 22 20 22 30 20 29 21 55 20 37 107 20 33 50 67 37 57 86 61 20 24 50 131 50
leaf_count=48 37 22 22 20 23 26 21 28 26 23 38 25 29 20 22 20 22 30 20 29 21 55 20 37 107 20 33 50 67 37 57 86 61 20 24 50 131 50
internal_value=1.42349e-07 -17.1359 411.843 29.8634 -32.0169 70.2252 15.1717 -17.5034 -38.4005 26.518 5.50636 58.0993 -9.80554 65.5554 31.9869 9.3374 -6.66512 -23.8755 40.097 25.4364 -33.4801 13.3044 -21.0542 -42.6583 -31.1164 -29.115 -0.838389 -30.1514 -22.5451 -11.5207 -35.9697 -35.2857 -40.3524 -25.8311 -44.0071 -39.5626 -43.3064 -45.1153
internal_weight=1477 1418 59 341 1077 91 250 329 748 115 135 65 149 45 94 113 121 180 42 52 347 75 117 401 178 63 55 157 97 66 169 143 148 40 253 111 155 98
internal_count=1477 1418 59 341 1077 91 250 329 748 115 135 65 149 45 94 113 121 180 42 52 347 75 117 401 178 63 55 157 97 66 169 143 148 40 253 111 155 98
is_linear=0
shrinkage=0.03


Tree=6
num_leaves=35
num_cat=0
split_feature=29 26 50 26 28 26 50 39 29 38 29 28 26 50 29 26 21 29 29 38 29 48 39 39 40 38 29 29 26 39 39 38 28 26
split_gain=1.08973e+10 1.03704e+09 8.50046e+08 1.82067e+08 1.47369e+08 3.17421e+07 2.59638e+07 2.14024e+07 1.72081e+07 1.4448e+07 1.32402e+07 1.15467e+07 4.24917e+06 3.85336e+06 3.6746e+06 3.23728e+06 2.91264e+06 2.4559e+06 2.40313e+06 2.11902e+06 1.37157e+06 1.35801e+06 1.07346e+06 900638 556641 538816 419873 401216 329996 316817 207418 141470 118526 84798
threshold=9383.5000000000018 2152.3333333333335 42.675615772641038 1018.3333333333335 3230.0000000000005 461.50000000000006 41.902635906810168 48.500000000000007 3265.0000000000005 -0.34637169010282459 1771.5000000000002 2100.0000000000005 714.16666666666686 35.461314847953894 3936.0000000000005 251.66666666666669 3047.5000000000005 2164.0000000000005 2692.5000000000005 -0.25219107356204123 1523.0000000000002 1895.2500000000002 40.500000000000007 102.50000000000001 -0.20985410288131254 -0.15800986647760831 1298.5000000000002 419.50000000000006 179.16666666666671 225.00000000000003 183.00000000000003 -0.24409553035760531 230.50000000000003 112.50000000000001
decision_type=2 2 2 2 2 2 2 2 2 2 2 2 2 2 2 2 2 2 2 2 2 2 2 2 2 2 2 2 2 2 2 2 2 2
left_child=1 3 -2 5 7 15 -6 11 18 -5 20 -3 22 21 -10 28 -13 -15 -9 -14 26 -12 24 -21 -7 32 -11 -27 33 -24 -22 -30 -17 -1
right_child=2 4 -4 9 6 12 -8 8 14 10 13 16 19 17 -16 25 -18 -19 -20 23 30 -23 29 -25 -26 27 -28 -29 31 -31 -32 -33 -34 -35
leaf_value=-44.088723392486571 314.83639352898848 0.57081415925707135 552.66663783482136 -25.165310389200844 59.51304296156939 -37.926775948660712 97.803886840820311 14.663401748657225 40.285322638617622 -18.273235035771908 -10.622787285804748 14.23244879586356 -33.410207006835932 1.7062049115222433 57.251283233642575 -42.165624572753906 28.70268635411416 12.739213245391847 27.510868016293173 -26.100325626421579 -10.228806867599486 -0.77101265903781446 -30.311222508021764 -21.332641141451319 -32.580541353045767 -38.262441390188116 -13.326524515354887 -35.262540484260107 -43.240825513756789 -26.433065396822418 -5.9599471827915735 -40.604446858723961 -38.974623579545451 -42.722028711369603
leaf_weight=64 38 35 21 36 34 21 30 20 27 23 20 21 25 46 20 20 31 30 38 79 20 34 70 65 106 76 47 85 23 26 21 90 22 113
leaf_count=64 38 35 21 36 34 21 30 20 27 23 20 21 25 46 20 20 31 30 38 79 20 34 70 65 106 76 47 85 23 26 21 90 22 113
internal_value=2.86758e-07 -16.6218 399.488 -28.6639 38.0376 -35.3074 77.4619 24.8961 34.0134 -7.438 -4.78994 13.8925 -28.9358 1.70763 47.5049 -40.3737 22.8589 6.06134 23.0807 -25.3479 -12.3997 -4.41982 -31.6549 -23.9482 -33.4646 -37.4681 -14.9519 -36.6786 -42.4076 -29.2609 -8.04232 -41.1411 -40.4941 -43.2162
internal_weight=1477 1418 59 1162 256 885 64 192 105 277 241 87 392 130 47 493 52 76 58 169 111 54 223 144 127 203 70 161 290 96 41 113 42 177
internal_count=1477 1418 59 1162 256 885 64 192 105 277 241 87 392 130 47 493 52 76 58 169 111 54 223 144 127 203 70 161 290 96 41 113 42 177
is_linear=0
shrinkage=0.03


Tree=7
num_leaves=37
num_cat=0
split_feature=37 26 50 26 28 26 48 38 30 38 29 7 28 39 26 39 39 26 29 38 26 21 29 26 39 39 38 38 29 29 26 29 42 38 28 50
split_gain=1.02581e+10 9.95953e+08 7.69939e+08 1.71307e+08 1.49409e+08 2.98661e+07 2.70867e+07 2.0455e+07 1.88167e+07 1.35941e+07 1.24577e+07 6.97332e+06 5.75044e+06 4.42679e+06 3.99804e+06 3.84903e+06 3.64921e+06 3.04595e+06 2.18633e+06 2.0028e+06 1.59071e+06 1.45747e+06 1.29051e+06 1.25256e+06 1.01627e+06 932754 576515 506972 395059 377504 311174 230845 210184 131158 111521 64219
threshold=11061.000000000002 2152.3333333333335 40.148526807578087 1018.3333333333335 3230.0000000000005 461.50000000000006 4977.2500000000009 -0.15800986647760831 2735.8333333333335 -0.34637169010282459 1771.5000000000002 0.62359833412954724 2100.0000000000005 403.50000000000006 714.16666666666686 96.500000000000014 225.00000000000003 251.66666666666669 2258.0000000000005 -0.31157093951564963 1741.0000000000002 2397.5000000000005 1523.0000000000002 3133.666666666667 84.500000000000014 102.50000000000001 -0.27808934416701964 -0.15800986647760831 1298.5000000000002 419.50000000000006 167.33333333333334 720.50000000000011 237.50000000000003 -0.29829071413511637 230.50000000000003 15.272139584951864
decision_type=2 2 2 2 2 2 2 2 2 2 2 2 2 2 2 2 2 2 2 2 2 2 2 2 2 2 2 2 2 2 2 2 2 2 2 2
left_child=1 3 -2 5 7 17 15 12 13 -5 22 23 -3 21 24 -6 20 30 -18 -16 -12 -9 28 -10 26 -21 -7 34 -11 -29 35 -26 -24 -32 -19 -1
right_child=2 4 -4 9 6 14 -8 8 11 10 16 -13 -14 -15 19 -17 18 27 -20 25 -22 -23 32 -25 31 -27 -28 29 -30 -31 33 -33 -34 -35 -36 -37
leaf_value=-43.606221400669639 305.61152189890538 -4.3086591886437455 530.8802210582387 -24.410351003011069 54.913893246858017 -35.93183153424944 104.80373430524553 7.7662732837200155 30.000847937542456 -17.725037921407949 -10.356485298156739 55.865964355468748 17.686498420715331 27.594095106858475 -33.501555633544918 72.67826695033483 2.0240047679156872 -40.900655456542971 13.25158587137858 -25.478980647495813 -0.22216086659742437 18.53831261268029 -10.002065826416015 40.266255065917967 -29.249062143961588 -20.692661907489484 -31.179519481658936 -37.114568674187915 -12.926728830540434 -34.20466423483456 -42.278491559709821 -25.717340875441028 -5.7048409652709955 -39.701926637846846 -37.805384299538353 -41.820136247114704
leaf_weight=21 36 23 22 36 23 28 21 20 23 23 20 21 20 39 20 21 37 20 27 84 46 26 20 20 36 65 128 76 47 85 21 31 21 116 22 132
leaf_count=21 36 23 22 36 23 28 21 20 23 23 20 21 20 39 20 21 37 20 27 84 46 26 20 20 36 65 128 76 47 85 21 31 21 116 22 132
internal_value=-3.01163e-07 -15.9841 391.058 -27.8039 37.4583 -34.2482 76.7714 24.1492 29.4095 -7.21486 -4.64624 41.6958 5.92165 20.1587 -28.0678 63.3923 1.6564 -39.1625 6.76064 -24.5875 -3.29317 13.8548 -12.0277 34.7755 -30.7053 -23.391 -32.0325 -36.344 -14.5033 -35.5783 -41.1354 -27.615 -7.80105 -40.0969 -39.2793 -42.0653
internal_weight=1477 1419 58 1162 257 885 65 192 149 277 241 64 43 85 392 44 130 493 64 169 66 46 111 43 223 149 156 203 70 161 290 67 41 137 42 153
internal_count=1477 1419 58 1162 257 885 65 192 149 277 241 64 43 85 392 44 130 493 64 169 66 46 111 43 223 149 156 203 70 161 290 67 41 137 42 153
is_linear=0
shrinkage=0.03


Tree=8
num_leaves=35
num_cat=0
split_feature=37 26 50 26 26 26 43 38 30 38 29 50 38 7 48 50 39 26 26 29 50 48 50 29 48 29 38 29 29 26 29 38 26 44
split_gain=9.65184e+09 9.37092e+08 7.25465e+08 1.61182e+08 1.38779e+08 2.8101e+07 2.77506e+07 1.9755e+07 1.41651e+07 1.27907e+07 1.17285e+07 8.39413e+06 6.50904e+06 3.9072e+06 3.81414e+06 3.63909e+06 2.95623e+06 2.86594e+06 2.8522e+06 2.37003e+06 1.49339e+06 1.23347e+06 1.15163e+06 919078 917640 848897 477010 371711 355193 295511 170612 126545 77801.1 64140.4
threshold=11061.000000000002 2152.3333333333335 42.675615772641038 1018.3333333333335 3827.0000000000005 461.50000000000006 1796.5000000000002 -0.050258463937726643 2735.8333333333335 -0.34637169010282459 1741.0000000000002 36.825181797542761 -0.28671754250386394 0.62359833412954724 814.78333333333342 35.461314847953894 403.50000000000006 251.66666666666669 2689.3333333333335 2071.5000000000005 24.305150903079713 1922.6666666666667 19.595135535392853 1523.0000000000002 607.08333333333337 988.50000000000011 -0.15800986647760831 1298.5000000000002 419.50000000000006 179.16666666666671 768.00000000000011 -0.24409553035760531 112.50000000000001 0.26207162431905101
decision_type=2 2 2 2 2 2 2 2 2 2 2 2 2 2 2 2 2 2 2 2 2 2 2 2 2 2 2 2 2 2 2 2 2 2
left_child=1 3 -2 5 7 17 11 12 16 -5 23 -6 -3 -10 22 21 -9 29 -14 -17 -16 -12 30 27 -24 -22 33 -11 -28 32 -7 -31 -1 -19
right_child=2 4 -4 9 6 14 -8 8 13 10 15 -13 18 -15 20 19 -18 26 -20 -21 25 -23 24 -25 -26 -27 28 -29 -30 31 -32 -33 -34 -35
leaf_value=-41.502246437072749 299.39389291299352 -4.7419792313575746 520.16022879464288 -23.678040517171222 46.133167602539061 -31.761605881911056 103.05603341674804 14.566062841198661 35.385660781860352 -17.193286822775136 -8.9754664002146036 71.775709364149307 8.2340839059012279 51.923608154296872 -28.675904757591983 0.05142339932291131 26.766272583007812 -36.983138538707387 23.869746595110211 10.451288034159962 -23.808341198730467 -0.22037688469886779 -30.713410244645743 -8.0561259370691634 -26.726560683139532 -18.161307235386058 -36.001131399054273 -12.538926972734167 -33.178524945427391 -40.688688752547556 -35.308706877335254 -38.195255737304684 -40.193149878577849 -39.330528808593748
leaf_weight=64 37 20 21 36 20 26 20 33 36 23 28 27 21 20 31 38 39 22 21 41 50 30 87 34 129 46 76 47 85 23 23 90 113 20
leaf_count=64 37 20 21 36 20 26 20 33 36 23 28 27 21 20 31 38 39 22 21 41 50 30 87 34 129 46 76 47 85 23 23 90 113 20
internal_value=5.93222e-08 -15.5045 379.327 -26.9698 36.3346 -33.2208 73.4586 23.2435 29.9759 -6.99841 -4.50685 60.864 9.34421 41.2921 -27.2257 1.25936 21.1745 -37.9876 16.0519 5.44882 -22.9511 -4.44697 -29.2743 -12.1027 -28.3324 -21.1025 -35.2537 -14.0682 -34.5109 -39.9013 -33.4266 -38.7028 -40.6665 -38.1009
internal_weight=1477 1419 58 1162 257 885 67 190 128 277 241 47 62 56 392 137 72 493 42 79 127 58 265 104 216 96 203 70 161 290 49 113 177 42
internal_count=1477 1419 58 1162 257 885 67 190 128 277 241 47 62 56 392 137 72 493 42 79 127 58 265 104 216 96 203 70 161 290 49 113 177 42
is_linear=0
shrinkage=0.03


Tree=9
num_leaves=39
num_cat=0
split_feature=33 26 7 26 26 50 26 26 48 39 28 39 44 49 50 50 39 48 26 26 39 26 48 28 28 49 39 40 26 49 48 48 48 28 49 28 7 50
split_gain=9.08097e+09 8.64331e+08 7.16836e+08 1.76671e+08 8.70824e+07 3.59476e+07 2.38256e+07 1.58409e+07 1.18702e+07 1.15434e+07 8.32634e+06 8.30295e+06 6.0282e+06 5.44693e+06 3.21339e+06 2.75791e+06 2.38649e+06 2.07295e+06 2.03669e+06 1.91946e+06 1.85296e+06 1.60881e+06 1.10177e+06 984618 968641 758256 580975 452242 448202 300647 278926 228220 213368 165956 130458 129571 128412 45724.2
threshold=9383.5000000000018 1763.666666666667 0.66859828323546033 3423.166666666667 791.50000000000011 41.902635906810168 2408.666666666667 428.33333333333343 1223.7500000000002 341.00000000000006 3908.5000000000005 -18.499999999999996 0.23154580885665813 0.77683672554469663 25.785516522054763 33.309218953678474 387.50000000000006 3160.416666666667 2049.5000000000005 251.66666666666669 99.500000000000014 2938.5000000000005 1579.1666666666667 656.00000000000011 521.50000000000011 1.2154003102877333 430.50000000000006 -0.20985410288131254 577.16666666666686 0.75363328721222944 164.00000000000003 373.16666666666674 972.16666666666686 805.50000000000011 0.71688888210119717 591.50000000000011 0.57117841527946178 33.245282196099254
decision_type=2 2 2 2 2 2 2 2 2 2 2 2 2 2 2 2 2 2 2 2 2 2 2 2 2 2 2 2 2 2 2 2 2 2 2 2 2 2
left_child=1 4 -2 6 7 10 11 19 15 12 -5 14 21 -10 -3 23 22 -11 -13 30 24 -8 -15 -6 27 32 -20 -9 -22 -21 37 -31 -17 -25 -32 -26 -30 -1
right_child=2 3 -4 5 8 -7 9 20 13 17 -12 18 -14 16 -16 25 -18 -19 26 29 28 -23 -24 33 35 -27 -28 -29 36 31 34 -33 -34 -35 -36 -37 -38 -39
leaf_value=-40.061347830636159 289.79386962890624 -13.778177247047424 510.70112548828121 37.814349921731392 -30.306328299386159 85.548521830240887 15.944018898010253 -34.925927881701234 -20.738246832953561 28.623641902378626 61.840306745256697 5.4967472542354034 1.3168337888717649 -10.919003219604491 1.3764630853077944 -20.266874242322196 0.90356567786020392 40.778717571756111 12.009878683090209 -37.934653264825997 -27.947647827148437 27.464723968505858 -3.8162308225631714 -23.992025062297952 -28.598544955783417 -11.671897510528565 18.778485325404574 -30.69805816074587 -25.459368347167967 -35.10138293457031 -39.817382249098557 -32.648485307173296 -16.714024772644041 -20.439792892456055 -37.496695312499995 -26.345799728393555 -22.538707842145648 -38.739458165322574
leaf_weight=98 39 20 20 34 21 36 24 29 27 28 21 35 20 57 34 29 34 23 25 22 30 20 30 29 54 20 21 106 20 90 26 55 32 20 135 40 42 31
leaf_count=98 39 20 20 34 21 36 24 29 27 28 21 35 20 57 34 29 34 23 25 22 30 20 30 29 54 20 21 106 20 90 26 55 32 20 135 40 42 31
internal_value=2.63376e-07 -15.1735 364.678 26.4515 -28.3528 62.2426 13.4235 -33.6412 -14.5923 23.4579 46.9879 4.87569 14.9732 -8.5546 -4.23637 -20.5101 -5.83594 34.1053 10.9504 -37.2289 -28.5335 21.1807 -8.46977 -24.8714 -29.9782 -16.7411 15.0999 -31.6063 -24.9374 -34.6668 -38.7043 -34.171 -18.4031 -22.5421 -37.8715 -27.6399 -23.4809 -39.7437
internal_weight=1477 1418 59 341 1077 91 250 778 299 115 55 135 64 148 54 151 121 51 81 457 321 44 87 70 229 81 46 135 92 167 290 145 61 49 161 94 62 129
internal_count=1477 1418 59 341 1077 91 250 778 299 115 55 135 64 148 54 151 121 51 81 457 321 44 87 70 229 81 46 135 92 167 290 145 61 49 161 94 62 129
is_linear=0
shrinkage=0.03


Tree=10
num_leaves=37
num_cat=0
split_feature=37 26 50 26 28 26 48 39 29 50 29 28 48 39 49 29 26 21 29 29 28 49 49 48 48 50 28 49 29 39 29 26 29 28 39 50
split_gain=8.54754e+09 8.29495e+08 6.54128e+08 1.42702e+08 1.2508e+08 2.48842e+07 2.38282e+07 1.7256e+07 1.39822e+07 1.13998e+07 1.03718e+07 9.02493e+06 3.38659e+06 3.34386e+06 3.30924e+06 3.03099e+06 2.53013e+06 2.3674e+06 2.36396e+06 1.91833e+06 1.57022e+06 1.43416e+06 1.17651e+06 974017 898302 717941 702629 437979 433560 424477 362867 266932 266074 185935 120039 74669.9
threshold=11061.000000000002 2152.3333333333335 39.234284776077537 1018.3333333333335 3230.0000000000005 461.50000000000006 4977.2500000000009 48.500000000000007 3265.0000000000005 19.595135535392853 1741.0000000000002 2100.0000000000005 814.78333333333342 137.50000000000003 1.0779449281847537 3936.0000000000005 251.66666666666669 3420.0000000000005 2258.0000000000005 2692.5000000000005 960.50000000000011 0.93493588469734401 0.9901581966458145 1086.6666666666667 603.41666666666686 34.552316104834397 584.00000000000011 0.76561564467453302 1037.5000000000002 2.5000000000000004 1419.5000000000002 179.16666666666671 446.00000000000006 251.50000000000003 15.500000000000002 18.095586777741175
decision_type=2 2 2 2 2 2 2 2 2 2 2 2 2 2 2 2 2 2 2 2 2 2 2 2 2 2 2 2 2 2 2 2 2 2 2 2
left_child=1 3 -2 5 7 16 14 11 19 20 23 -3 22 25 -6 -10 31 -13 -15 -9 -5 26 27 -11 -24 -12 -14 -7 -23 33 -25 35 -31 -18 -33 -1
right_child=2 4 -4 9 6 12 -8 8 15 10 13 17 21 18 -16 -17 29 -19 -20 -21 -22 28 24 30 -26 -27 -28 -29 -30 32 -32 34 -34 -35 -36 -37
leaf_value=-39.662386558795795 272.3219888305664 0.34636484364100867 476.88240112304686 -26.543853378295896 48.590761871337889 -33.191665719839243 96.444121616908475 12.815567001342773 35.795255516899957 -16.700769386291501 -6.7211860728263852 14.990414443016052 -29.28366507393973 1.6949775037473562 65.11385673522949 51.203939025878903 -36.35614298502604 28.147783126831055 12.750227364434137 24.294206615247223 -15.362913771409255 -20.536231310045395 -28.500676559698388 -12.290915948275863 -23.717548828125 -0.098788631145770731 -22.562876586914062 -28.79232351749501 -15.536428163316513 -33.189311465308776 -7.9277623585292263 -37.214214723501634 -30.206677570748838 -33.60220420435855 -35.223976334281588 -37.997629864666912
leaf_weight=29 34 35 24 20 20 26 21 20 27 24 34 32 21 49 24 20 36 20 27 38 26 37 61 29 84 26 42 94 27 63 42 67 47 57 46 148
leaf_count=29 34 35 24 20 20 26 21 20 27 24 34 32 21 49 24 20 36 20 27 38 26 37 61 29 84 26 42 94 27 63 42 67 47 57 46 148
internal_value=3.53487e-07 -14.5906 356.968 -25.3776 34.1817 -31.2593 70.1519 22.0042 30.1909 -6.58597 -3.87013 12.1238 -25.6179 1.4428 57.6034 42.3521 -35.745 20.0509 5.6225 20.3361 -20.2242 -21.5899 -27.5482 -11.476 -25.7298 -3.85148 -24.8031 -29.7455 -18.4269 -33.1763 -9.7099 -37.5432 -31.9149 -34.6682 -36.404 -38.2704
internal_weight=1477 1419 58 1162 257 885 65 192 105 277 231 87 392 136 44 47 493 52 76 58 46 127 265 95 145 60 63 120 64 203 71 290 110 93 113 177
internal_count=1477 1419 58 1162 257 885 65 192 105 277 231 87 392 136 44 47 493 52 76 58 46 127 265 95 145 60 63 120 64 203 71 290 110 93 113 177
is_linear=0
shrinkage=0.03


Tree=11
num_leaves=40
num_cat=0
split_feature=37 48 7 28 48 29 49 29 29 28 50 7 49 66 29 29 48 49 48 48 38 49 49 48 49 48 49 48 49 49 48 49 50 49 29 29 28 50 29
split_gain=8.04238e+09 7.63449e+08 6.2209e+08 1.76579e+08 6.82361e+07 3.58276e+07 2.76978e+07 2.38997e+07 1.15659e+07 1.15127e+07 6.77197e+06 6.26053e+06 4.39852e+06 4.11513e+06 4.10245e+06 3.72537e+06 2.61283e+06 2.38817e+06 1.68417e+06 1.61979e+06 1.22828e+06 1.18897e+06 1.17596e+06 1.00382e+06 828744 660276 592334 527263 515702 455790 352224 319153 183565 172538 157438 132379 82182.6 53231.4 44416.7
threshold=11061.000000000002 1816.7500000000002 0.66859828323546033 2878.0000000000005 774.50000000000011 5429.0000000000009 0.69982787837921778 2805.5000000000005 436.00000000000006 1011.5000000000001 43.548388631188111 0.60337385353399908 0.85164654508091464 3.5000000000000004 3265.0000000000005 2290.5000000000005 1164.1666666666667 1.0638088862953332 3823.0833333333335 578.50000000000011 -0.0031743093386928495 1.014489865900607 0.60319225729507508 230.5 1.1795788548287753 1563.4166666666667 0.92470050842666129 1378.9166666666667 0.83227854676027746 0.77057080900181008 1042.3333333333337 0.8155555215849335 33.245282196099254 1.1759604654232449 534.50000000000011 326.00000000000006 187.00000000000003 14.953828144837972 200.50000000000003
decision_type=2 2 2 2 2 2 2 2 2 2 2 2 2 2 2 2 2 2 2 2 2 2 2 2 2 2 2 2 2 2 2 2 2 2 2 2 2 2 2
left_child=1 4 -2 6 8 11 -3 15 23 12 13 18 22 -9 -12 26 24 27 -5 28 -17 29 -6 32 -14 -19 -8 -11 -10 -21 -24 36 37 -23 -30 -33 -25 -1 -34
right_child=2 3 -4 5 9 -7 7 10 19 17 14 -13 16 -15 -16 20 -18 25 -20 21 -22 33 30 31 -26 -27 -28 -29 34 -31 -32 35 38 -35 -36 -37 -38 -39 -40
leaf_value=-38.838450439453119 274.98040263928868 -15.305698844008147 481.68728759765622 31.595937561035154 -31.746589599609376 83.146971722771141 -2.305505937127506 23.895850682576498 -33.857038235134553 -14.738598507967861 24.943275844029017 57.979688371930806 -19.552774716641039 7.540938071250916 43.695309709821423 4.6183671855926516 -8.1449464132956102 -5.1808679592609401 43.907534820556641 -31.963836233956474 13.178634783029556 -24.084487979970078 -25.452146512545074 -37.200247009277341 -12.827577816009521 2.1997014055252073 3.7097492377116126 -8.8738617108319247 -30.429057064964656 -26.99127286886867 -20.294477691650389 -33.981741871553304 -36.325779670266542 -21.038775364802433 -28.394757666015625 -31.953364139386075 -34.682351466587605 -37.166730163574222 -35.047359515250996
leaf_weight=20 38 32 20 20 20 34 34 45 27 22 21 21 94 20 21 22 28 24 20 21 48 47 26 20 20 20 26 37 63 79 22 51 51 26 75 67 28 120 47
leaf_count=20 38 32 20 20 20 34 34 45 27 22 21 21 94 20 21 22 28 24 20 21 48 47 26 20 20 20 26 37 63 79 22 51 51 26 75 67 28 120 47
internal_value=-9.82569e-09 -14.1529 346.259 23.3095 -27.0783 58.4699 10.8922 14.4295 -32.0337 -15.3312 24.9303 44.7155 -19.3607 18.8636 34.3193 5.7865 -16.3561 -7.11581 37.7517 -27.9388 10.4883 -25.9106 -25.6348 -35.4596 -18.3729 -1.82606 0.301105 -11.0607 -30.0653 -28.0355 -23.0882 -33.669 -36.7085 -22.9997 -29.3235 -32.83 -35.7315 -37.4055 -35.7127
internal_weight=1477 1419 58 364 1055 95 269 237 742 313 107 61 210 65 42 130 142 103 40 338 70 173 68 404 114 44 60 59 165 100 48 166 238 73 138 118 48 140 98
internal_count=1477 1419 58 364 1055 95 269 237 742 313 107 61 210 65 42 130 142 103 40 338 70 173 68 404 114 44 60 59 165 100 48 166 238 73 138 118 48 140 98
is_linear=0
shrinkage=0.03


Tree=12
num_leaves=39
num_cat=0
split_feature=29 26 50 26 26 50 38 29 26 48 28 50 49 47 29 50 29 26 39 38 50 28 28 49 29 38 29 38 29 24 48 48 28 28 49 29 64 64
split_gain=7.56762e+09 7.20449e+08 6.19545e+08 1.47024e+08 7.24792e+07 3.18515e+07 2.02207e+07 1.84317e+07 1.31844e+07 9.87055e+06 6.91658e+06 4.76037e+06 4.59432e+06 2.88122e+06 2.48733e+06 2.37487e+06 2.22084e+06 1.59464e+06 1.58214e+06 1.24997e+06 990738 822819 816203 666311 467545 419645 414870 362415 217490 200500 181543 166173 105216 88098.7 86975.2 80077 66252.5 25463.7
threshold=9383.5000000000018 1763.666666666667 33.945521502106082 3423.166666666667 791.50000000000011 41.902635906810168 -0.28396791552441863 2857.0000000000005 428.33333333333343 1223.7500000000002 3908.5000000000005 43.548388631188111 0.77683672554469663 2799.5000000000005 1741.0000000000002 33.309218953678474 2164.0000000000005 226.16666666666669 99.500000000000014 -0.0031743093386928495 40.981712277725912 656.00000000000011 521.50000000000011 1.2154003102877333 809.00000000000011 -0.31157093951564963 1374.0000000000002 -0.15800986647760831 355.00000000000006 977.50000000000011 972.16666666666686 144.75000000000003 591.50000000000011 223.50000000000003 0.79376948329403463 675.00000000000011 2819.5000000000005 2213.0000000000005
decision_type=2 2 2 2 2 2 2 2 2 2 2 2 2 2 2 2 2 2 2 2 2 2 2 2 2 2 2 2 2 2 2 2 2 2 2 2 2 2
left_child=1 4 -2 6 8 10 -3 16 17 15 -5 13 -11 -9 26 21 -8 31 22 -18 -16 -6 25 30 35 -10 -14 33 -29 -23 -17 37 -24 -19 -33 -20 -26 -1
right_child=2 3 -4 5 9 -7 7 11 18 12 -12 -13 14 -15 20 23 19 27 24 -21 -22 29 32 -25 36 -27 -28 28 -30 -31 -32 34 -34 -35 -36 -37 -38 -39
leaf_value=-36.998725814819331 215.5089549255371 -10.410698155126264 413.408203125 34.081188462201283 -27.742041451590399 78.739459940592454 1.3283468022315126 14.112567316691081 -32.148028564453121 -19.014037636650929 55.978927350725442 33.147801577919402 -12.861361083984374 26.81877682389884 -3.6595694588593073 -18.506228911301186 4.801978944264925 -35.439517540564907 -26.040510697798293 12.858177998982944 4.710574140071869 -22.30631384713309 -26.101273328993052 -10.47715175628662 -21.642184295654296 -28.02270188376168 -7.6858236744092858 -32.713881578947372 -30.369848260176806 -18.428491210937501 -15.229040479660034 -36.171588322566109 -24.071257736206054 -32.791119232177735 -34.544093567895111 -23.62187818254743 -19.256457616632634 -36.031363623046872
leaf_weight=48 24 31 35 34 21 36 38 36 28 27 21 38 20 29 35 29 26 26 22 52 20 28 54 20 20 107 46 57 95 21 32 39 40 20 122 28 22 50
leaf_count=48 24 31 35 34 21 36 38 36 28 27 21 38 20 29 35 29 26 26 22 52 20 28 54 20 20 107 46 57 95 21 32 39 40 20 122 28 22 50
internal_value=8.17193e-10 -13.8516 332.907 24.1512 -25.884 56.8015 12.2665 15.4766 -30.7087 -13.3302 42.4421 24.7128 -7.82451 19.7815 -5.32767 -18.7266 7.27546 -33.9817 -26.0489 10.1728 -0.615881 -22.7737 -27.3838 -15.229 -22.726 -28.8783 -9.25417 -31.9549 -31.2489 -20.6444 -16.787 -35.5312 -25.2374 -34.288 -34.9383 -24.6861 -20.3925 -36.5052
internal_weight=1477 1418 59 341 1077 91 250 219 778 299 55 103 148 65 121 151 116 457 321 78 55 70 229 81 92 135 66 198 152 49 61 259 94 46 161 50 42 98
internal_count=1477 1418 59 341 1077 91 250 219 778 299 55 103 148 65 121 151 116 457 321 78 55 70 229 81 92 135 66 198 152 49 61 259 94 46 161 50 42 98
is_linear=0
shrinkage=0.03


Tree=13
num_leaves=35
num_cat=0
split_feature=26 26 64 26 26 26 26 38 38 26 50 30 39 38 48 39 39 26 39 50 29 29 50 48 29 7 21 38 29 50 28 30 28 29
split_gain=7.12956e+09 8.1567e+08 3.99909e+08 1.94904e+08 1.18677e+08 3.95576e+07 2.07269e+07 1.29391e+07 9.91923e+06 8.78765e+06 8.21033e+06 6.94526e+06 3.47573e+06 3.07945e+06 2.8326e+06 2.36479e+06 2.23439e+06 2.10471e+06 1.80029e+06 1.17004e+06 1.14925e+06 920671 884415 712193 662880 577076 557372 378174 274839 227961 199667 103147 84787.5 62396.5
threshold=13190.000000000002 2152.3333333333335 30677.000000000004 4914.8333333333339 1018.3333333333335 3423.166666666667 461.50000000000006 -0.21928776268333947 -0.34637169010282459 1618.8333333333335 42.03472701721406 2735.8333333333335 403.50000000000006 -0.043922815879482546 814.78333333333342 241.50000000000003 446.00000000000006 251.66666666666669 253.50000000000003 24.305150903079713 2258.0000000000005 1613.5000000000002 19.595135535392853 609.66666666666686 988.50000000000011 0.5532577012637534 1252.5000000000002 -0.15800986647760831 419.50000000000006 37.465100066527491 421.00000000000006 135.83333333333337 230.50000000000003 241.50000000000003
decision_type=2 2 2 2 2 2 2 2 2 2 2 2 2 2 2 2 2 2 2 2 2 2 2 2 2 2 2 2 2 2 2 2 2 2
left_child=1 4 -2 5 6 7 17 -3 -6 18 13 12 -9 -7 22 25 -13 29 26 -16 -17 -20 30 -24 -21 -11 -10 32 -29 31 -8 -1 -19 -31
right_child=2 3 -4 -5 8 10 14 11 9 15 -12 16 -14 -15 19 20 -18 27 21 24 -22 -23 23 -25 -26 -27 -28 28 -30 33 -32 -33 -34 -35
leaf_value=-35.613449126452934 282.84470605468749 -2.5685477631568907 456.03004687499998 101.11079814801897 -20.720755500793459 29.060907302856446 -31.094444824218751 11.183006748623317 -14.694579841859879 -4.1227048781939919 60.93641619873047 24.631514587402343 22.936216501089241 44.854431591796867 -24.767750509938885 3.4428160652092523 37.861299316406253 -34.232859375000004 -8.6388359928131102 -20.455264526367188 13.491205467224122 -0.56330505106184214 -26.362450500488279 -22.868308897472563 -15.465152776137643 1.6555298384938921 -9.6644330801530316 -30.933475076775803 -28.450586727366726 -33.587908571933177 -27.198088926117993 -34.252663659384083 -31.533967562588774 -31.870431976318358
leaf_weight=82 30 25 20 35 36 20 20 54 31 28 20 27 39 25 31 21 20 20 24 50 20 27 90 126 46 35 55 76 85 47 29 129 22 32
leaf_count=82 30 25 20 35 36 20 20 54 31 28 20 27 39 25 31 21 20 20 24 50 20 27 90 126 46 35 55 76 85 47 29 129 22 32
internal_value=1.29024e-07 -12.3377 352.119 35.1571 -23.1692 25.1207 -28.5329 17.3119 -6.03225 -3.83812 44.9432 20.8619 16.1118 37.8351 -23.3842 2.73684 30.2612 -32.6268 -8.82932 -19.7005 8.34447 -4.36355 -25.1497 -24.3242 -18.0642 -0.912574 -11.4776 -30.284 -29.6226 -34.2668 -28.7884 -34.7815 -32.8192 -32.8922
internal_weight=1477 1427 50 265 1162 230 885 165 277 241 65 140 93 45 392 104 47 493 137 127 41 51 265 216 96 63 86 203 161 290 49 211 42 79
internal_count=1477 1427 50 265 1162 230 885 165 277 241 65 140 93 45 392 104 47 493 137 127 41 51 265 216 96 63 86 203 161 290 49 211 42 79
is_linear=0
shrinkage=0.03


Tree=14
num_leaves=42
num_cat=0
split_feature=29 26 50 26 26 50 26 26 48 39 39 32 7 39 50 29 50 29 29 48 21 39 50 26 50 29 32 29 50 29 39 39 36 21 48 32 50 42 26 48 64
split_gain=6.71123e+09 6.3674e+08 5.60138e+08 1.29013e+08 6.42306e+07 2.84838e+07 1.79344e+07 1.03272e+07 1.02555e+07 8.84765e+06 6.33422e+06 5.18582e+06 3.80625e+06 3.59067e+06 2.46417e+06 2.1693e+06 1.96319e+06 1.9448e+06 1.67665e+06 1.43002e+06 1.37511e+06 1.22357e+06 957318 802708 708995 700260 536882 489530 488327 334395 282810 158937 147718 141915 138623 128724 77883.4 70807.5 67109 55423.2 22687.3
threshold=9383.5000000000018 1763.666666666667 43.548388631188111 3423.166666666667 762.50000000000011 41.902635906810168 2408.666666666667 360.66666666666674 1211.0000000000002 -505.99999999999994 -18.499999999999996 3572.5000000000005 0.46453379748340023 436.50000000000006 25.785516522054763 1613.5000000000002 33.309218953678474 3500.0000000000005 2325.0000000000005 578.50000000000011 2712.5000000000005 -112.49999999999999 18.095586777741175 222.5 45.295243073906811 1063.5000000000002 646.00000000000011 775.00000000000011 43.096107763544957 1374.0000000000002 -5.4999999999999991 5.5000000000000009 682.50000000000011 446.50000000000006 144.75000000000003 378.50000000000006 19.410150363727777 -47.499999999999993 299.50000000000006 853.00000000000011 2770.0000000000005
decision_type=2 2 2 2 2 2 2 2 2 2 2 2 2 2 2 2 2 2 2 2 2 2 2 2 2 2 2 2 2 2 2 2 2 2 2 2 2 2 2 2 2
left_child=1 4 -2 6 7 11 10 23 16 -8 14 -5 -10 20 -3 29 26 -15 -12 30 -11 -17 -21 34 -20 39 -6 -24 -27 -14 35 37 -28 -32 40 -9 -36 -25 -33 -18 -1
right_child=2 3 -4 5 8 -7 9 19 12 13 18 -13 15 17 -16 21 25 -19 24 22 -22 -23 27 31 -26 28 32 -29 -30 -31 33 38 -34 -35 36 -37 -38 -39 -40 -41 -42
leaf_value=-34.750423213413782 247.30970365084136 -12.181013624578714 442.58500341796872 32.449012756347656 -24.539125563677619 74.013524373372391 3.613062436658403 -29.830882649739582 -17.312217170452247 12.890860296249389 4.2338205745003439 51.410063127790174 -12.893045379638671 24.727534665194423 1.089837697463877 -8.1000882425308234 -19.318317626953124 37.653312744140621 9.8026222525702575 -28.189249716366039 23.046318847656249 0.65507136127528021 -23.880862829589844 -32.934468595064601 17.152363848005024 -15.893107983398435 -21.081570849609374 -20.357193020907314 -10.020853326504048 -7.9769872908158739 -27.373381640624999 -30.453336639404295 -17.622501937866211 -24.958958974984977 -34.612316720145081 -27.293914123535156 -32.647384247281657 -30.990588684082031 -28.613239990234373 -17.084914169311524 -33.828048444475449
leaf_weight=56 39 20 20 34 34 36 23 45 29 20 33 21 20 22 34 20 20 20 27 34 30 51 100 26 21 25 25 55 26 33 50 44 20 39 21 30 134 48 30 20 42
leaf_count=56 39 20 20 34 34 36 23 45 29 20 33 21 20 22 34 20 20 20 27 34 30 51 100 26 21 25 25 55 26 33 50 44 20 39 21 30 134 48 30 20 42
internal_value=-1.70552e-07 -13.0443 313.505 22.6826 -24.3561 53.2677 11.5496 -29.1512 -13.1625 20.2555 4.13349 39.6887 -7.52777 24.4161 -3.82529 -5.23947 -18.2338 30.8827 9.43934 -25.4092 18.9841 -1.81117 -23.6305 -32.4454 13.0181 -15.23 -21.6939 -22.6305 -12.8994 -9.8321 -27.459 -30.6905 -19.5442 -26.3154 -33.472 -28.8161 -32.9136 -31.6736 -29.7074 -18.2016 -34.3551
internal_weight=1477 1418 59 341 1077 91 250 754 323 115 135 55 153 92 54 124 170 42 81 353 50 71 189 401 48 91 79 155 51 53 164 148 45 89 253 75 155 74 74 40 98
internal_count=1477 1418 59 341 1077 91 250 754 323 115 135 55 153 92 54 124 170 42 81 353 50 71 189 401 48 91 79 155 51 53 164 148 45 89 253 75 155 74 74 40 98
is_linear=0
shrinkage=0.03


Tree=15
num_leaves=36
num_cat=0
split_feature=26 26 7 26 26 26 26 38 38 26 50 48 29 38 39 39 48 26 28 39 21 29 29 49 21 42 29 38 29 48 48 39 49 28 64
split_gain=6.3302e+09 7.199e+08 3.61688e+08 1.70864e+08 1.05058e+08 3.45562e+07 1.83549e+07 1.15875e+07 8.942e+06 7.79618e+06 6.99669e+06 6.35605e+06 3.8595e+06 2.90176e+06 2.54166e+06 2.11441e+06 1.87298e+06 1.86253e+06 1.72209e+06 1.6043e+06 1.12025e+06 1.0287e+06 882673 614267 535310 503649 370239 341356 242641 214117 205635 186039 102550 77525.9 38922
threshold=13190.000000000002 2152.3333333333335 0.66672027003842282 4914.8333333333339 1018.3333333333335 3423.166666666667 461.50000000000006 -0.21928776268333947 -0.34637169010282459 1618.8333333333335 42.03472701721406 2812.0833333333335 3433.5000000000005 -0.043922815879482546 93.000000000000014 241.50000000000003 2255.0000000000005 251.66666666666669 591.50000000000011 225.00000000000003 658.50000000000011 2258.0000000000005 1555.5000000000002 0.62896032694787807 1252.5000000000002 167.50000000000003 1050.5000000000002 -0.15800986647760831 419.50000000000006 828.91666666666686 164.00000000000003 225.00000000000003 0.71688888210119717 230.50000000000003 2770.0000000000005
decision_type=2 2 2 2 2 2 2 2 2 2 2 2 2 2 2 2 2 2 2 2 2 2 2 2 2 2 2 2 2 2 2 2 2 2 2
left_child=1 4 -2 5 6 7 17 -3 -6 19 13 16 -13 -7 18 25 -9 30 23 24 31 -17 -21 -8 -10 -11 -22 33 -29 -20 34 -16 -32 -19 -1
right_child=2 3 -4 -5 8 10 14 11 9 15 -12 12 -14 -15 20 21 -18 27 29 22 26 -23 -24 -25 -26 -27 -28 28 -30 -31 32 -33 -34 -35 -36
leaf_value=-33.712171925511853 265.91208398437499 -2.5149881833076475 430.61357958984371 94.746461530412944 -19.623776753743492 27.044959877014161 -30.319530116489958 8.036120417118072 -14.320453981672014 -2.9563951391440173 56.887918212890618 20.435581255656917 35.042788730197479 42.376055273437501 -22.495991623337201 3.2636419561931063 17.773660938262939 -32.256871673583987 -21.70736077202691 -8.8144027643618372 -17.251095598493304 12.770391975402831 -1.1095613993704319 -24.834409117406729 -9.2088744311862509 2.5671461057662963 -12.212461927958897 -29.09979174162212 -26.766872917624081 -18.831820455411584 -33.253343247633715 -19.466762135823565 -31.19580716959635 -29.6761386940696 -32.664631863446296
leaf_weight=58 30 25 20 35 36 20 21 32 28 39 20 41 27 25 37 21 40 20 54 23 35 20 32 147 54 24 21 76 85 41 26 36 135 22 71
leaf_count=58 30 25 20 35 36 20 21 32 28 39 20 41 27 25 37 21 40 20 54 23 35 20 32 147 54 24 21 76 85 41 26 36 135 22 71
internal_value=4.64311e-08 -11.6255 331.793 32.9941 -21.8013 23.597 -26.8479 16.2984 -5.67758 -3.59433 42.124 19.658 26.2355 35.5622 -22.0027 2.59862 13.4459 -30.7004 -23.6946 -8.29554 -18.5535 7.90108 -4.33159 -25.52 -10.9543 -0.852189 -15.3616 -28.4965 -27.8681 -20.4663 -32.2432 -21.0021 -31.5281 -30.9051 -33.1356
internal_weight=1477 1427 50 265 1162 230 885 165 277 241 65 140 68 45 392 104 72 493 263 137 129 41 55 168 82 63 56 203 161 95 290 73 161 42 129
internal_count=1477 1427 50 265 1162 230 885 165 277 241 65 140 68 45 392 104 72 493 263 137 129 41 55 168 82 63 56 203 161 95 290 73 161 42 129
is_linear=0
shrinkage=0.03


Tree=16
num_leaves=34
num_cat=0
split_feature=26 26 7 26 26 42 26 26 38 38 26 48 38 33 26 38 26 38 38 49 52 38 26 48 42 50 38 42 26 50 65 50 33
split_gain=5.95609e+09 6.77354e+08 3.40312e+08 1.6123e+08 9.88489e+07 5.42134e+07 2.30925e+07 1.72701e+07 1.09027e+07 8.41352e+06 7.33543e+06 5.99441e+06 5.25419e+06 3.58251e+06 2.38592e+06 1.95051e+06 1.75245e+06 1.2718e+06 1.15073e+06 1.07667e+06 999894 863717 672702 491212 484071 399325 321181 298610 229618 198654 96787 48516.9 44878.4
threshold=13190.000000000002 2152.3333333333335 0.66672027003842282 4629.1666666666679 1018.3333333333335 937.50000000000011 3423.166666666667 461.50000000000006 -0.21928776268333947 -0.34637169010282459 1618.8333333333335 2396.8333333333335 0.11978993152614202 2991.5000000000005 748.50000000000011 0.073694059563624723 251.66666666666669 0.16860995156807193 -0.25219107356204123 1.1505710591737772 0.069691982779288855 -0.27808934416701964 1350.1666666666667 1378.9166666666667 156.00000000000003 37.614526764110792 -0.15800986647760831 -16.499999999999996 347.83333333333337 37.465100066527491 0.079176208876661616 23.362680200448672 246.50000000000003
decision_type=2 2 2 2 2 2 2 2 2 2 2 2 2 2 2 2 2 2 2 2 2 2 2 2 2 2 2 2 2 2 2 2 2
left_child=1 4 -2 6 7 -5 8 16 -3 -6 17 19 -8 -13 21 27 29 23 -16 -10 -17 -9 -19 -11 -23 -20 31 -12 -28 30 -1 -18 -31
right_child=2 3 -4 5 9 -7 12 14 11 10 15 13 -14 -15 18 20 26 22 25 -21 -22 24 -24 -25 -26 -27 28 -29 -30 32 -32 -33 -34
leaf_value=-32.213873094831193 257.93472070312504 -2.4395384462356566 417.69517529296877 54.292332019042966 -19.035063451131183 120.55913269042968 31.246505480085098 -27.751503532163557 4.5481101951599117 -12.957927029258325 -4.4464794183814007 14.284486731167496 50.522044189453119 26.850699678503947 -24.61153076171875 9.4015566035679417 -30.950088417746802 -7.1114910189310709 -18.511723452481355 14.16556018482555 1.2396751964092254 -23.378335051883926 -0.35518716437476017 -8.2504916763305651 -20.402904077817315 -14.95740387775898 -28.230241072805303 0.33710060082375998 -25.960788272633273 -30.614176025390623 -30.854064743686727 -28.908508850097657 -29.170041396197149
leaf_weight=140 30 25 20 25 36 20 35 31 20 38 23 29 20 69 21 35 22 36 66 22 22 151 21 42 73 50 76 24 85 45 71 20 34
leaf_count=140 30 25 20 25 36 20 35 31 20 38 23 29 20 69 21 35 22 36 66 22 22 151 21 42 73 50 76 24 85 45 71 20 34
internal_value=1.20287e-07 -11.2768 321.839 32.0042 -21.1472 83.7442 21.4211 -26.0424 15.8095 -5.50725 -3.4865 19.0682 38.2558 23.1321 -21.3427 2.52066 -29.7794 -8.04668 -18.1495 9.58582 6.25136 -23.0582 -4.62233 -10.4865 -22.4087 -16.9797 -27.6416 -2.0038 -27.0321 -31.2759 -31.7563 -29.9779 -29.9926
internal_weight=1477 1427 50 265 1162 45 220 885 165 277 241 140 55 98 392 104 493 137 137 42 57 255 57 80 224 116 203 47 161 290 211 42 79
internal_count=1477 1427 50 265 1162 45 220 885 165 277 241 140 55 98 392 104 493 137 137 42 57 255 57 80 224 116 203 47 161 290 211 42 79
is_linear=0
shrinkage=0.03


Tree=17
num_leaves=35
num_cat=0
split_feature=37 26 50 26 26 43 38 26 48 38 29 50 29 26 41 49 52 29 38 26 48 60 38 49 29 48 40 29 38 29 26 29 38 50
split_gain=5.61025e+09 5.38708e+08 4.65215e+08 9.482e+07 7.21857e+07 1.82652e+07 1.81226e+07 1.53543e+07 1.40098e+07 6.06938e+06 5.32365e+06 5.07772e+06 4.77555e+06 2.29003e+06 1.96056e+06 1.94525e+06 1.83141e+06 1.69718e+06 1.33131e+06 1.31948e+06 1.27594e+06 870339 719934 682241 552380 464498 395366 237788 223653 214582 188002 145456 92502.3 60824.3
threshold=11061.000000000002 1949.6666666666667 33.945521502106082 3827.0000000000005 979.00000000000011 1796.5000000000002 -0.22986494416614922 441.50000000000006 2812.0833333333335 -0.22463109103177162 3433.5000000000005 36.825181797542761 1673.5000000000002 695.66666666666686 198.50000000000003 1.1795788548287753 0.29627407294490765 2024.5000000000002 -0.32711759550445929 251.66666666666669 2076.166666666667 13.122179989213516 0.057121459694989107 0.94059586224979708 1268.5000000000002 846.50000000000011 -0.20985410288131254 644.50000000000011 -0.15800986647760831 1545.0000000000002 179.16666666666671 395.50000000000006 0.069668642675435766 14.626982026549276
decision_type=2 2 2 2 2 2 2 2 2 2 2 2 2 2 2 2 2 2 2 2 2 2 2 2 2 2 2 2 2 2 2 2 2 2
left_child=1 4 -2 6 7 11 -3 19 15 21 23 -5 24 22 -12 20 17 -14 -15 30 -8 -6 26 -10 -11 -20 -9 -24 -21 -26 33 -30 -32 -1
right_child=2 3 -4 5 9 -7 8 13 10 12 14 -13 16 18 -16 -17 -18 -19 25 28 -22 -23 27 -25 29 -27 -28 -29 31 -31 32 -33 -34 -35
leaf_value=-32.506050109863281 184.39027667501699 -4.2751753884392807 358.07593024553569 33.838089065551756 -22.214250274658205 79.525165649414049 1.7559497353434561 -28.022362899780273 15.416256713867186 -13.630133642578125 27.544743270874022 53.781888020833328 -1.3301786652926739 -25.327461131702769 39.435335223858168 17.186940765380857 -7.6380658633892349 8.0204453132629396 -19.089528524037952 -29.104717856959294 10.721658123779296 -13.363799394607543 -22.987492457798549 23.063334786551337 -9.4816239759657126 -15.71669840851875 -23.746749794969279 -20.099931876442646 -27.524173675081624 -5.9077311379568913 -30.09281498695487 -25.594682056323901 -28.345704146675441 -30.749415077160879
leaf_weight=20 23 37 35 20 20 20 20 24 21 25 24 27 58 22 26 31 26 25 74 38 50 20 42 21 54 73 103 66 67 21 67 74 46 157
leaf_count=20 23 37 35 20 20 20 20 24 21 25 24 27 58 22 26 31 26 25 74 38 50 20 42 21 54 73 103 66 67 21 67 74 46 157
internal_value=2.04884e-07 -11.8207 289.201 24.1066 -21.3309 55.5131 14.9577 -25.3948 18.6449 -7.08278 27.1137 45.2952 -5.03374 -21.1081 33.7279 10.9307 -0.690174 1.48627 -18.4447 -29.0874 8.16003 -17.789 -23.0235 19.2398 -9.76823 -17.4146 -24.5547 -21.2229 -27.062 -8.48093 -30.3376 -26.5115 -29.3816 -30.9479
internal_weight=1477 1419 58 297 1122 67 230 873 193 249 92 47 209 404 50 101 109 83 169 469 70 40 235 42 100 147 127 108 179 75 290 141 113 177
internal_count=1477 1419 58 297 1122 67 230 873 193 249 92 47 209 404 50 101 109 83 169 469 70 40 235 42 100 147 127 108 179 75 290 141 113 177
is_linear=0
shrinkage=0.03


Tree=18
num_leaves=35
num_cat=0
split_feature=26 26 64 26 26 26 26 38 50 50 29 48 29 38 39 38 26 28 29 28 21 48 49 29 39 29 50 48 38 39 26 28 50 29
split_gain=5.28301e+09 5.98726e+08 3.14011e+08 1.43473e+08 8.74212e+07 3.28159e+07 1.52936e+07 9.69742e+06 7.67827e+06 7.05252e+06 6.49458e+06 5.2638e+06 3.8396e+06 2.86833e+06 2.20845e+06 2.15661e+06 1.54892e+06 1.44297e+06 1.33112e+06 1.25036e+06 969427 657873 540525 334482 296745 242219 180264 173154 170163 166654 156619 138220 85172.8 49327.8
threshold=13190.000000000002 2152.3333333333335 30677.000000000004 5096.8333333333348 1018.3333333333335 3423.166666666667 461.50000000000006 -0.17673775671405992 19.595135535392853 42.675615772641038 1741.0000000000002 2255.0000000000005 3265.0000000000005 -0.067492171932820824 93.000000000000014 -0.033603857915784491 251.66666666666669 591.50000000000011 2024.5000000000002 960.50000000000011 658.50000000000011 1086.6666666666667 0.62896032694787807 1050.5000000000002 24.500000000000004 1419.5000000000002 37.465100066527491 828.91666666666686 -0.16692708333333325 225.00000000000003 318.83333333333343 264.50000000000006 14.626982026549276 251.50000000000003
decision_type=2 2 2 2 2 2 2 2 2 2 2 2 2 2 2 2 2 2 2 2 2 2 2 2 2 2 2 2 2 2 2 2 2 2
left_child=1 4 -2 5 6 7 16 -3 19 13 21 -9 -13 -7 17 28 26 22 -17 -6 29 -10 -8 -22 31 -23 32 -19 -12 -16 -26 -18 -1 -28
right_child=2 3 -4 -5 8 9 14 11 10 -11 15 12 -14 -15 20 18 24 27 -20 -21 23 25 -24 -25 30 -27 33 -29 -30 -31 -32 -33 -34 -35
leaf_value=-31.458592393663192 241.72373840332031 -0.54603270101547241 395.18647998046873 91.852203216552724 -22.02444623565674 24.271802135467532 -27.831507306780132 7.2280806884765623 -13.275918109416962 53.461109452681107 -6.3387368445396417 16.885333528518675 28.644515226410654 39.146976274762828 -20.557813654719173 -0.060608500741248905 -28.326092715056046 -19.819284294976129 7.1380598213195796 -12.047085518470176 -15.692756338936944 -9.6392662732354513 -22.686152754803089 -10.903612488337926 -26.44047668457031 -6.0745024108886714 -28.760536032284005 -17.233394745617375 -2.555106034071549 -17.690741297403971 -23.874899041848103 -26.163023885091143 -29.654237176646358 -27.193364868164061
leaf_weight=27 30 30 20 30 20 20 21 30 24 22 20 64 41 28 37 43 46 54 50 26 35 29 147 21 33 42 51 41 23 36 61 63 184 28
leaf_count=27 30 30 20 30 20 20 21 30 24 22 20 64 41 28 37 43 46 54 50 26 35 29 147 21 33 42 51 41 23 36 61 63 184 28
internal_value=-7.69614e-08 -10.6205 303.109 30.071 -19.9004 22.184 -24.504 14.8821 -5.19223 39.3957 -2.96336 18.3106 21.477 32.949 -20.0813 1.24084 -28.0206 -21.6583 3.80964 -16.3851 -16.8661 -8.982 -23.3293 -13.8968 -26.0107 -7.53053 -29.4275 -18.7033 -4.31493 -19.1439 -24.7756 -27.0759 -29.8851 -28.2051
internal_weight=1477 1427 50 265 1162 235 885 165 277 70 231 135 105 48 392 136 493 263 93 46 129 95 168 56 203 71 290 95 43 73 94 109 211 79
internal_count=1477 1427 50 265 1162 235 885 165 277 70 231 135 105 48 392 136 493 263 93 46 129 95 168 56 203 71 290 95 43 73 94 109 211 79
is_linear=0
shrinkage=0.03


Tree=19
num_leaves=38
num_cat=0
split_feature=29 26 64 26 26 42 38 29 26 28 48 52 49 29 29 29 38 26 38 38 49 49 29 28 28 29 48 38 40 22 29 26 48 28 49 28 49
split_gain=4.97546e+09 4.67417e+08 4.32281e+08 9.26792e+07 4.73425e+07 1.82061e+07 1.39662e+07 1.2514e+07 8.59225e+06 8.13315e+06 6.49831e+06 3.73223e+06 3.25088e+06 2.19316e+06 1.61657e+06 1.43755e+06 1.43502e+06 1.04211e+06 1.01915e+06 788607 736406 701788 603092 555818 509323 283967 254787 242615 226547 202421 178518 157558 111013 68462.6 63297.8 29080.9 21366.2
threshold=9383.5000000000018 1763.666666666667 30677.000000000004 3423.166666666667 791.50000000000011 1401.0000000000002 -0.28396791552441863 2857.0000000000005 428.33333333333343 3571.0000000000005 1223.7500000000002 0.37928874227853587 0.77683672554469663 3265.0000000000005 1741.0000000000002 2164.0000000000005 -0.098791973791973728 222.5 0.042026934002628108 -0.0031743093386928495 1.0458134277530082 1.2298296366270376 809.00000000000011 706.50000000000011 531.50000000000011 1374.0000000000002 874.66666666666686 -0.10648517516718874 -0.20985410288131254 715.50000000000011 644.50000000000011 299.50000000000006 144.75000000000003 251.50000000000003 0.7276946392865079 591.50000000000011 0.84164668092410133
decision_type=2 2 2 2 2 2 2 2 2 2 2 2 2 2 2 2 2 2 2 2 2 2 2 2 2 2 2 2 2 2 2 2 2 2 2 2 2
left_child=1 4 -2 6 8 9 -3 15 17 -5 16 13 -12 -9 25 -8 23 32 24 -17 -16 26 30 -6 28 -14 -18 33 -10 -24 -20 -29 36 -19 -34 -26 -1
right_child=2 3 -4 5 10 -7 7 11 18 -11 12 -13 14 -15 20 19 21 27 22 -21 -22 -23 29 -25 35 -27 -28 31 -30 -31 -32 -33 34 -35 -36 -37 -38
leaf_value=-30.416316833496094 211.78388897235575 -8.9037863629864091 383.33089160156248 27.587680791967053 -23.043883758544922 70.584372985839835 1.06828925651155 18.662094207763673 -26.394914686414928 47.913097550675673 -15.722433598836261 8.936405258178711 -10.359480331420899 28.521622900060706 -3.1393286332663366 3.9180972840235784 -17.187528121948244 -28.174471984863281 -21.879415974167156 10.317074661254882 4.0058370562962118 -7.9668250422477724 -15.224399728775024 -16.741136923397288 -21.2153323265814 -6.0776148704860518 -13.252001792506167 -26.371059187549655 -23.184482673438819 -19.071742126464841 -19.428552280002169 -24.343281808876128 -29.6679084777832 -26.090928372469815 -27.992038886383291 -19.905098510742189 -29.317219895582934
leaf_weight=20 39 31 20 34 20 20 38 45 27 37 27 21 20 37 34 26 20 40 53 52 21 20 32 34 31 46 57 59 74 20 54 83 24 22 131 30 78
leaf_count=20 39 31 20 34 20 20 38 45 27 37 27 21 20 37 34 26 20 40 53 52 21 20 32 34 31 46 57 59 74 20 54 83 24 22 131 30 78
internal_value=7.09439e-08 -11.2314 269.935 19.3787 -20.9232 45.3017 9.94278 12.6106 -24.8225 38.1798 -10.7773 20.221 -6.31 23.1109 -4.20971 5.85305 -15.1558 -27.4648 -21.0608 8.18408 -0.411174 -12.9737 -19.3545 -19.0755 -22.7354 -7.37515 -14.2742 -25.8694 -24.0427 -16.7041 -20.6425 -25.1858 -28.7512 -27.4352 -28.2515 -20.571 -29.5415
internal_weight=1477 1418 59 341 1077 91 250 219 778 71 299 103 148 82 121 116 151 457 321 78 55 97 159 54 162 66 77 204 101 52 107 142 253 62 155 61 98
internal_count=1477 1418 59 341 1077 91 250 219 778 71 299 103 148 82 121 116 151 457 321 78 55 97 159 54 162 66 77 204 101 52 107 142 253 62 155 61 98
is_linear=0
shrinkage=0.03


Tree=20
num_leaves=35
num_cat=0
split_feature=26 26 7 48 26 26 26 38 38 26 38 48 29 29 39 39 48 26 39 29 21 7 48 29 21 38 29 7 26 26 39 38 38 39
split_gain=4.69041e+09 5.28693e+08 2.79854e+08 1.26543e+08 7.73367e+07 3.02516e+07 1.35435e+07 8.60078e+06 6.86309e+06 5.79794e+06 5.16587e+06 4.90106e+06 3.94867e+06 3.09292e+06 1.95971e+06 1.63354e+06 1.46594e+06 1.43804e+06 1.2832e+06 884716 817403 765170 685487 664748 522976 304412 301271 234128 226261 165075 151718 81883.8 70094.4 37698.1
threshold=13190.000000000002 2152.3333333333335 0.66672027003842282 5368.3333333333348 1018.3333333333335 3423.166666666667 467.66666666666669 -0.21928776268333947 -0.34637169010282459 1641.3333333333337 -0.080430890082596837 2812.0833333333335 4764.5000000000009 3433.5000000000005 93.000000000000014 225.00000000000003 2255.0000000000005 251.66666666666669 183.00000000000003 2290.5000000000005 658.50000000000011 0.39709410587031263 638.75000000000011 1555.5000000000002 1539.5000000000002 -0.10648517516718874 1050.5000000000002 0.5532577012637534 354.83333333333343 167.33333333333334 236.50000000000003 -0.21594432005511396 -0.33479734324704175 9.5000000000000018
decision_type=2 2 2 2 2 2 2 2 2 2 2 2 2 2 2 2 2 2 2 2 2 2 2 2 2 2 2 2 2 2 2 2 2 2
left_child=1 4 -2 5 6 7 17 -3 -6 18 -7 16 -12 -13 21 27 -9 29 24 -17 30 -8 -23 -20 -10 32 -22 -11 -27 33 -16 -31 -19 -1
right_child=2 3 -4 -5 8 10 14 11 9 15 12 13 -14 -15 20 19 -18 25 23 -21 26 22 -24 -25 -26 28 -28 -29 -30 31 -32 -33 -34 -35
leaf_value=-28.770608492764559 227.65311230468748 -2.1837692321777342 372.52905322265622 88.54367723056248 -17.111538403828938 25.966080017089844 -24.74913131221648 6.6781930500268931 -10.921640182753741 -3.0634600251454573 34.40799041748047 17.502833270561407 51.617005920410158 30.579172397189669 -19.173528864933893 2.9633934368133543 15.292895934104918 -27.620923545143818 -7.4364272073599009 11.428736274719238 -14.770019452776227 -21.694003308884639 -18.357376051161026 -1.1770291059725992 -5.308125591784715 -24.895995458984373 -10.224848578316825 0.89001374168055403 -22.580882013494318 -28.379287850516182 -16.36178478610131 -26.560474455947173 -25.459922659737725 -27.817969003530646
leaf_weight=88 30 25 20 28 36 24 31 32 59 26 24 41 24 27 39 25 40 22 26 20 35 94 135 37 20 75 21 28 77 28 31 109 35 65
leaf_count=88 30 25 20 28 36 24 31 32 59 26 24 41 24 27 39 25 40 22 26 20 35 94 135 37 20 75 21 28 77 28 31 109 35 65
internal_value=-8.78537e-08 -10.0071 285.603 28.2305 -18.7274 21.1049 -23.0573 14.0247 -4.89358 -3.06849 37.3304 16.9191 43.0125 22.6949 -18.8377 2.50434 11.4641 -26.3214 -6.95378 6.72577 -15.7671 -20.3258 -19.727 -3.76027 -9.5005 -24.4243 -13.0656 -1.01351 -23.7232 -27.6886 -17.9283 -26.9322 -26.294 -28.3659
internal_weight=1477 1427 50 265 1162 237 885 165 277 241 72 140 48 68 386 99 72 499 142 45 126 260 229 63 79 209 56 54 152 290 70 137 57 153
internal_count=1477 1427 50 265 1162 237 885 165 277 241 72 140 48 68 386 99 72 499 142 45 126 260 229 63 79 209 56 54 152 290 70 137 57 153
is_linear=0
shrinkage=0.03


Tree=21
num_leaves=33
num_cat=0
split_feature=26 26 50 42 26 26 38 26 38 30 50 48 39 7 49 26 39 29 50 38 48 48 48 49 29 39 26 29 38 39 29 50
split_gain=4.41321e+09 4.97447e+08 2.65307e+08 1.22283e+08 7.27661e+07 3.27275e+07 1.82274e+07 1.27583e+07 9.41613e+06 7.3163e+06 6.57102e+06 5.43157e+06 2.43911e+06 2.38151e+06 2.30856e+06 1.94974e+06 1.66392e+06 1.05204e+06 920116 862191 739641 705023 617761 587765 469736 370831 289210 173011 165583 114137 71776.8 50051
threshold=13190.000000000002 2152.3333333333335 43.548388631188111 1597.5000000000002 1018.3333333333335 3827.0000000000005 -0.10169923955530484 532.50000000000011 -0.28671754250386394 2735.8333333333335 19.595135535392853 1579.1666666666667 403.50000000000006 0.62025457707939302 1.021673091518412 304.83333333333343 177.50000000000003 2258.0000000000005 14.626982026549276 -0.37241822038628997 828.91666666666686 1086.6666666666667 1933.0000000000002 1.1166585019508006 976.00000000000011 2.5000000000000004 179.16666666666671 482.50000000000006 -0.33479734324704175 9.5000000000000018 843.50000000000011 14.626982026549276
decision_type=2 2 2 2 2 2 2 2 2 2 2 2 2 2 2 2 2 2 2 2 2 2 2 2 2 2 2 2 2 2 2 2
left_child=1 4 -2 5 7 8 -7 15 -3 12 19 21 -10 -11 22 26 18 -16 -9 -6 -20 -12 -13 -23 30 28 31 -27 -17 -28 -18 -1
right_child=2 3 -4 -5 10 6 -8 16 9 13 11 14 -14 -15 17 25 24 -19 20 -21 -22 23 -24 -25 -26 27 29 -29 -30 -31 -32 -33
leaf_value=-28.827244628906247 220.61126025390624 -4.4628928356170654 361.67156909179687 93.487305908203126 -19.784075523376465 21.083654537200928 55.444076926491476 -24.081770717075891 7.9860221315685065 21.193222879028319 -12.23543828830719 -4.7615460372652327 17.798283534802888 33.442110626220703 2.0986537055969237 -26.591846749441963 -17.193109688136889 10.801933296203613 -19.385551752297275 -11.498930141742413 -15.610465153620794 -8.0421146719796308 0.57898840256712658 -2.1568660545349121 -11.378364100864955 -22.875274692111546 -26.412737145584618 -20.484752230557525 -23.564277496337887 -24.846053629042224 -14.767247750418527 -27.233753584357583
leaf_weight=20 30 20 20 23 20 24 33 28 57 50 25 35 38 20 25 21 23 25 166 26 65 56 44 21 35 54 89 55 72 79 21 157
leaf_count=20 30 20 20 23 20 24 33 28 57 50 25 35 38 20 25 21 23 25 166 26 65 56 44 21 35 54 89 55 72 79 21 157
internal_value=-6.01575e-08 -9.70692 277.035 27.3836 -18.1656 21.101 40.9765 -22.3656 14.9772 17.3336 -4.74677 -2.68486 11.9109 24.6929 1.40571 -25.1971 -17.7833 6.45029 -18.9458 -15.1012 -18.3233 -7.85822 -1.78707 -6.43705 -13.9721 -22.8564 -26.5676 -21.669 -24.2479 -25.676 -16.0353 -27.4138
internal_weight=1477 1427 50 265 1162 242 57 885 185 165 277 231 95 70 129 547 338 50 259 46 231 102 79 77 79 202 345 109 93 168 44 177
internal_count=1477 1427 50 265 1162 242 57 885 185 165 277 231 95 70 129 547 338 50 259 46 231 102 79 77 79 202 345 109 93 168 44 177
is_linear=0
shrinkage=0.03


Tree=22
num_leaves=38
num_cat=0
split_feature=33 50 26 26 26 50 38 26 26 48 28 38 49 50 48 50 21 48 38 26 26 49 28 49 34 33 28 38 38 26 38 48 48 50 28 23 49
split_gain=4.16015e+09 3.88831e+08 3.87791e+08 7.61485e+07 3.95357e+07 1.89775e+07 1.17154e+07 1.05941e+07 7.14399e+06 5.42084e+06 4.09055e+06 2.90091e+06 2.78092e+06 1.47491e+06 1.42151e+06 1.26882e+06 1.17313e+06 1.14318e+06 864162 838869 780431 643214 587522 531643 529277 394459 334086 200187 190041 111865 96158.1 95634.9 87485.7 55567.5 44017.2 34364.4 18766.6
threshold=9383.5000000000018 31.236268835536602 1763.666666666667 3423.166666666667 791.50000000000011 41.902635906810168 -0.28396791552441863 2388.166666666667 418.33333333333343 1223.7500000000002 3908.5000000000005 0.14009345794392511 0.77683672554469663 37.203630919461482 3160.416666666667 43.548388631188111 2811.5000000000005 1579.1666666666667 -0.14596670934699102 577.16666666666686 222.5 0.96129443881514498 650.00000000000011 1.0428455280855289 2133.6250000000005 1176.5000000000002 433.50000000000006 0.22161915494746198 -0.14888190524496636 299.50000000000006 0.24655419145891397 144.75000000000003 890.28333333333342 19.410150363727777 213.00000000000003 617.50000000000011 0.84164668092410133
decision_type=2 2 2 2 2 2 2 2 2 2 2 2 2 2 2 2 2 2 2 2 2 2 2 2 2 2 2 2 2 2 2 2 2 2 2 2 2
left_child=2 -2 4 6 8 10 -4 15 20 13 -5 16 -11 22 -13 24 -9 23 26 30 31 -19 -6 -14 -8 -15 -10 -21 34 -30 -20 36 -24 -33 -22 -28 -1
right_child=1 -3 3 5 9 -7 7 11 18 12 -12 14 17 25 -16 -17 -18 21 19 27 28 -23 32 -25 -26 -27 35 -29 29 -31 -32 33 -34 -35 -36 -37 -38
leaf_value=-27.800729461669921 139.28398910522461 301.98140887920675 -8.2030854754294111 23.595175801445453 -20.827223693847653 58.042471669514967 0.98059601321816436 7.739071125984192 -24.391575650301846 -14.45146925608317 40.435255039760044 19.10560432434082 -8.5493127404189693 -12.74421774291992 29.218387922807175 9.6668370159252266 16.847138828822544 -3.2700904378294942 -20.804380655924479 -17.800167801468458 -26.370796675248581 3.3935178654166784 -16.280191661289759 -3.0654077625274656 6.1706268545559473 -7.9559072546660898 -21.292262961647726 -15.42873613465507 -24.121535997390747 -22.447952918075934 -18.867045297930314 -27.218417184012274 -14.104769875131003 -25.558694253039004 -24.493800898012907 -19.650774993896484 -26.770663851224459
leaf_weight=20 20 39 31 34 20 36 48 20 33 27 21 29 41 30 22 37 35 32 90 81 22 22 28 26 28 32 22 53 64 82 31 21 41 134 23 24 78
leaf_count=20 20 39 31 34 20 36 48 20 33 27 21 29 41 30 22 37 35 32 90 81 22 22 28 26 28 32 22 53 64 82 31 21 41 134 23 24 78
internal_value=6.47465e-08 246.83 -10.2701 17.6112 -19.0978 41.1088 9.05809 11.5014 -22.6612 -9.82608 30.025 18.3141 -5.74593 -13.8252 23.468 5.11079 13.5351 -3.80337 -19.3466 -18.4973 -25.1545 -0.555287 -16.2998 -6.42123 2.89271 -10.2728 -22.0882 -16.8622 -23.7069 -23.1816 -20.308 -26.2473 -14.9875 -25.7836 -25.4114 -20.4358 -26.9809
internal_weight=1477 59 1418 341 1077 91 250 219 778 299 55 106 148 151 51 113 55 121 334 255 444 54 89 67 76 62 79 134 191 146 121 253 69 155 45 46 98
internal_count=1477 59 1418 341 1077 91 250 219 778 299 55 106 148 151 51 113 55 121 334 255 444 54 89 67 76 62 79 134 191 146 121 253 69 155 45 46 98
is_linear=0
shrinkage=0.03


Tree=23
num_leaves=35
num_cat=0
split_feature=26 26 64 42 26 28 64 26 38 30 50 48 50 29 28 26 39 39 5 28 28 48 50 29 38 39 26 29 50 27 39 29 29 50
split_gain=3.91512e+09 4.39737e+08 2.42321e+08 1.0732e+08 6.85787e+07 2.89431e+07 1.77817e+07 1.13167e+07 9.76557e+06 6.52017e+06 6.21216e+06 5.23056e+06 2.06092e+06 1.85394e+06 1.84585e+06 1.72268e+06 1.56069e+06 1.48783e+06 1.11759e+06 1.11143e+06 973157 629930 454071 426856 325127 312423 306216 274283 193304 154879 129250 119363 66020.2 45128.2
threshold=13190.000000000002 2186.666666666667 30677.000000000004 1597.5000000000002 1018.3333333333335 3544.0000000000005 8375.0000000000018 532.50000000000011 -0.17673775671405992 2735.8333333333335 19.595135535392853 1579.1666666666667 41.631042837143362 2071.5000000000005 2003.5000000000002 318.83333333333343 403.50000000000006 177.50000000000003 31.697618759800324 984.50000000000011 591.50000000000011 1086.6666666666667 17.295252613729108 976.00000000000011 -0.050258463937726643 2.5000000000000004 179.16666666666671 1613.5000000000002 32.631503409581917 119.87393776288771 41.500000000000007 482.50000000000006 843.50000000000011 28.458929843058762
decision_type=2 2 2 2 2 2 2 2 2 2 2 2 2 2 2 2 2 2 2 2 2 2 2 2 2 2 2 2 2 2 2 2 2 2
left_child=1 4 -2 5 7 8 -7 15 14 16 19 21 -11 24 -3 26 -10 20 -15 -6 22 -12 -9 32 -13 29 33 -23 -22 -17 -28 -27 -19 -1
right_child=2 3 -4 -5 10 6 -8 17 9 12 11 13 -14 18 -16 25 -18 23 -20 -21 28 27 -24 -25 -26 31 30 -29 -30 -31 -32 -33 -34 -35
leaf_value=-26.331705044130736 207.00946026611328 -4.5379311733245844 341.82062402343752 88.371778962508486 -19.357991463797433 20.473860604422434 57.28139458550347 -22.433753592354911 8.7055908372925543 21.827048411051432 -11.536063122940062 -5.046030507087707 33.031005914861503 11.078049201965332 8.3510743789672848 -21.961242084503173 17.265759557088217 -16.201000273331349 2.610935803474264 -9.9961328567504886 -16.884433416551158 -7.4468876314163204 -18.510587044455789 -10.651296020507811 -0.54514877207004109 -21.358515888560898 -24.599367925688977 -3.7516128543327594 -14.404175632183367 -24.985730987548827 -22.909785400390625 -19.26215410267223 -13.874449157714844 -25.368086037149233
leaf_weight=79 30 20 20 23 21 21 27 35 41 45 25 20 22 20 20 64 36 23 47 25 62 48 110 35 52 44 127 29 52 20 60 55 21 98
leaf_count=79 30 20 20 23 21 21 27 35 41 45 25 20 22 20 20 64 36 23 47 25 62 48 110 35 52 44 127 29 52 20 60 55 21 98
internal_value=1.15204e-07 -9.14274 260.934 26.5598 -16.9108 20.4319 41.1781 -21.0434 15.0199 18.6625 -4.16747 -2.23918 25.506 1.54681 1.90657 -23.7101 12.7077 -16.7278 5.13843 -14.27 -17.827 -7.39852 -19.4576 -13.1238 -1.79539 -21.3357 -24.9038 -6.05516 -15.7531 -22.6814 -24.0573 -20.1939 -15.0906 -25.7982
internal_weight=1477 1427 50 255 1172 232 48 885 184 144 287 241 67 139 40 547 77 338 67 46 259 102 145 79 72 183 364 77 114 84 187 99 44 177
internal_count=1477 1427 50 255 1172 232 48 885 184 144 287 241 67 139 40 547 77 338 67 46 259 102 145 79 72 183 364 77 114 84 187 99 44 177
is_linear=0
shrinkage=0.03


Tree=24
num_leaves=41
num_cat=0
split_feature=29 7 26 28 26 26 50 38 26 48 38 29 23 44 7 50 29 29 21 22 39 26 26 22 28 29 28 29 29 29 49 40 48 6 29 39 49 28 29 28
split_gain=3.69073e+09 3.5361e+08 3.42558e+08 6.74711e+07 3.50256e+07 1.51162e+07 1.12018e+07 8.27378e+06 6.32093e+06 4.78466e+06 4.14844e+06 3.78295e+06 2.8842e+06 2.74378e+06 2.52229e+06 1.33e+06 1.19744e+06 1.13529e+06 1.02566e+06 912612 871186 844491 776050 633156 530703 437134 416296 394129 296239 253847 191698 187526 164266 162559 91830.9 88597.7 80203.3 75566.6 45471.1 22329.6
threshold=9383.5000000000018 0.66859828323546033 1763.666666666667 3230.0000000000005 791.50000000000011 2408.666666666667 47.359100813163892 -1.0000000180025095e-35 428.33333333333343 1223.7500000000002 -0.23869278866278737 3936.0000000000005 4146.5000000000009 0.26207162431905101 0.46453379748340023 37.203630919461482 2397.5000000000005 1806.5000000000002 2465.5000000000005 2179.5000000000005 44.500000000000007 2962.3333333333335 222.5 1419.5000000000002 650.00000000000011 1172.5000000000002 531.50000000000011 809.00000000000011 1401.5000000000002 2071.5000000000005 0.75363328721222944 -0.20985410288131254 373.16666666666674 9525.9609545392432 644.50000000000011 29.500000000000004 0.91901170470953286 124.50000000000001 230.50000000000003 623.50000000000011
decision_type=2 2 2 2 2 2 2 2 2 2 2 2 2 2 2 2 2 2 2 2 2 2 2 2 2 2 2 2 2 2 2 2 2 2 2 2 2 2 2 2
left_child=2 -2 4 5 8 10 12 13 22 15 -4 18 -5 21 -11 24 29 28 -9 -18 26 -7 35 -19 -6 -17 31 34 -16 -12 -24 -10 -32 -29 -22 37 -26 -1 -37 -28
right_child=1 -3 3 6 9 7 -8 11 20 14 16 -13 -14 -15 17 25 19 23 -20 -21 27 -23 30 -25 36 -27 39 33 -30 -31 32 -33 -34 -35 -36 38 -38 -39 -40 -41
leaf_value=-25.540236307779946 179.89271005483775 335.04641015625003 -8.988968325311486 27.190635257720949 -19.653336776733397 8.8079301234654004 62.253380824497768 14.071448375701904 -22.797050577799478 -13.343567962646484 0.040936939991437465 34.692583305358887 42.767838055154549 -0.3387487206459045 -8.7452235135165122 -11.913142574534696 11.458440291460821 4.1957210941314695 22.427505727914664 3.5042384992327009 -18.602311386108397 17.218628581653942 -24.472840955010774 -2.8468094827069179 -15.460119506835936 -6.8513310262135096 -17.99221857070923 -16.340459930419922 -4.567765029716492 4.0317320787906645 -22.461630233764648 -19.923016030447823 -20.481738114790481 -12.871369097309728 -16.68222275677849 -24.344858019029772 -13.332246717973188 -24.344477933995861 -22.646223091457202 -16.799109329223629
leaf_weight=108 39 20 22 20 20 21 21 20 27 29 26 20 23 20 22 34 34 20 39 21 40 22 29 27 25 28 48 20 50 32 120 84 55 31 51 37 44 85 23 20
leaf_count=108 39 20 22 20 20 21 21 20 27 29 26 20 23 20 22 34 34 20 39 21 40 22 29 27 25 28 48 20 50 32 120 84 55 31 51 37 44 85 23 20
internal_value=-1.16472e-07 232.487 -9.6733 16.5315 -17.9703 10.1172 44.2937 16.9504 -21.3242 -9.24337 2.92962 23.4171 35.5226 8.84129 -5.41011 -13.0005 5.25005 -3.47674 19.5949 8.42138 -18.0977 13.1111 -23.5905 0.150012 -15.3504 -9.62716 -19.4897 -16.343 -5.84421 2.24275 -22.2137 -20.6221 -21.8394 -14.2318 -17.5262 -24.7006 -14.1032 -25.0136 -23.6937 -17.6413
internal_weight=1477 59 1418 341 1077 277 64 142 778 299 135 79 43 63 148 151 113 119 59 55 321 43 457 47 89 62 179 142 72 58 204 111 175 51 91 253 69 193 60 68
internal_count=1477 59 1418 341 1077 277 64 142 778 299 135 79 43 63 148 151 113 119 59 55 321 43 457 47 89 62 179 142 72 58 204 111 175 51 91 253 69 193 60 68
is_linear=0
shrinkage=0.03


Tree=25
num_leaves=37
num_cat=0
split_feature=29 48 6 29 48 49 48 48 49 49 29 48 48 49 49 49 48 48 49 65 49 29 49 48 48 49 48 49 49 29 50 12 49 49 50 50
split_gain=3.4731e+09 3.36278e+08 2.99475e+08 5.8848e+07 5.43018e+07 1.67586e+07 1.09561e+07 9.41968e+06 7.49279e+06 4.61579e+06 4.46589e+06 3.69151e+06 2.65064e+06 2.14068e+06 1.97246e+06 1.78632e+06 1.0488e+06 1.00548e+06 1.00155e+06 772034 697127 621931 554659 486430 382210 197012 193374 157040 149834 126437 123907 106667 83777.1 58326.9 57212.1 31056.9
threshold=14755.000000000002 2121.666666666667 11066.45387767166 5429.0000000000009 1042.3333333333337 0.87316494113817977 3712.5833333333335 456.75000000000006 0.9494326387511246 0.69982787837921778 3066.5000000000005 1712.9166666666667 3156.7500000000005 0.61197851322387165 1.1795788548287753 1.0101508681578857 1436.5000000000002 714.16666666666686 1.1545162305802465 0.10165510464712592 1.1623486787633466 2692.5000000000005 0.66203312008043469 678.66666666666686 1357.8333333333337 1.0994733518597584 578.50000000000011 1.1913590209989686 0.8250445642790678 369.00000000000006 36.62134189040934 28.500000000000004 0.85683847402597413 0.764039498150622 14.148631701626547 48.079531254950354
decision_type=2 2 2 2 2 2 2 2 2 2 2 2 2 2 2 2 2 2 2 2 2 2 2 2 2 2 2 2 2 2 2 2 2 2 2 2
left_child=1 4 -2 5 7 9 10 19 13 -3 21 20 -11 -6 -12 22 32 26 31 30 24 -7 -9 -24 -10 33 -17 -19 -18 -27 34 -13 -15 -21 -1 -32
right_child=2 3 -4 -5 8 6 -8 15 11 12 14 18 -14 16 -16 17 28 27 -20 25 -22 -23 23 -25 -26 29 -28 -29 -30 -31 35 -33 -34 -35 -36 -37
leaf_value=-25.771595993041991 177.99747130475723 -8.9187195653915392 321.29942522321426 56.087740798125395 -19.160294298444477 7.7932615432739256 36.449194107055661 -22.254021859004578 -8.0791726549933944 2.2397920038700101 18.478556641923621 0.83394744113087649 15.949430694580078 -13.511769241333008 29.200201124108354 -17.817757811112838 -7.7932327052525112 -12.591010950991981 10.150627535039728 -23.469600808279854 0.13553114414215087 13.901933532714843 -19.230656133798451 -16.261180914627875 -3.7008547948536119 -22.058724229600696 -15.20846113361296 -9.5012874298095706 -4.5516531588814475 -19.552026955344459 -23.377581380208333 3.788143298734318 -10.856924246083134 -21.922171588557781 -24.198216447096602 -22.041254043579098
leaf_weight=24 35 20 21 37 21 30 32 29 34 30 47 22 22 20 23 44 21 57 22 28 24 30 104 95 38 27 61 20 33 55 45 22 23 101 156 24
leaf_count=24 35 20 21 37 21 30 32 29 34 30 47 22 22 20 23 44 21 57 22 28 24 30 104 95 38 27 61 20 33 55 45 22 23 101 156 24
internal_value=2.77706e-08 -9.13244 231.736 20.9309 -16.2169 15.3719 20.7242 -19.9152 -4.72588 3.32926 16.8535 -0.53748 8.04002 -10.476 22.0014 -16.6087 -8.59595 -14.3924 4.92424 -22.8623 -4.29241 10.8476 -18.3779 -17.8131 -5.76839 -21.5272 -16.3019 -11.7885 -5.81227 -20.3774 -23.9937 2.31105 -12.0917 -22.258 -24.408 -22.9128
internal_weight=1477 1421 56 271 1150 234 162 870 280 72 130 162 52 118 70 410 97 182 66 460 96 60 228 199 72 211 105 77 54 82 249 44 43 129 180 69
internal_count=1477 1421 56 271 1150 234 162 870 280 72 130 162 52 118 70 410 97 182 66 460 96 60 228 199 72 211 105 77 54 82 249 44 43 129 180 69
is_linear=0
shrinkage=0.03


Tree=26
num_leaves=39
num_cat=0
split_feature=24 48 6 28 48 49 48 48 29 49 48 7 28 49 49 29 29 48 48 49 48 49 49 48 48 5 49 49 48 29 49 50 49 12 49 33 49 29
split_gain=3.27036e+09 3.0952e+08 3.03591e+08 5.54901e+07 5.10926e+07 1.36557e+07 1.28477e+07 8.86297e+06 8.78788e+06 7.04997e+06 3.47334e+06 3.41309e+06 3.34009e+06 2.01417e+06 1.68074e+06 1.67545e+06 1.54447e+06 986818 946055 942363 722053 655926 521879 457847 359621 308878 275598 215362 181945 147985 140979 117424 115535 100363 78825.9 39277.5 36155.4 28363.7
threshold=8937.5000000000018 2121.666666666667 11066.45387767166 3571.0000000000005 1042.3333333333337 0.80254256013476688 4977.2500000000009 456.75000000000006 3334.0000000000005 0.9494326387511246 1712.9166666666667 0.58661191902449039 1776.5000000000002 0.61197851322387165 1.0101508681578857 2692.5000000000005 3864.0000000000005 1436.5000000000002 714.16666666666686 1.1545162305802465 245.5 1.1623486787633466 0.66203312008043469 686.96666666666681 1357.8333333333337 36.825181797542761 1.0961078016859733 0.99583393252765584 578.50000000000011 976.00000000000011 0.8250445642790678 33.245282196099254 0.69982787837921778 28.500000000000004 0.85683847402597413 506.00000000000006 0.68903426147170965 210.50000000000003
decision_type=2 2 2 2 2 2 2 2 2 2 2 2 2 2 2 2 2 2 2 2 2 2 2 2 2 2 2 2 2 2 2 2 2 2 2 2 2 2
left_child=1 4 -2 5 7 12 -5 20 15 13 21 -10 -3 -6 22 27 -13 34 28 33 31 24 -9 -24 -11 -17 32 -7 -16 -20 -19 36 -22 -12 -15 -28 -1 -33
right_child=2 3 -4 6 9 8 -8 14 11 10 19 16 -14 17 18 25 -18 30 29 -21 26 -23 23 -25 -26 -27 35 -29 -30 -31 -32 37 -34 -35 -36 -37 -38 -39
leaf_value=-24.933002493722096 171.9073899387669 -10.01929887516158 316.98065478515622 36.02007453918457 -18.585485491071431 4.4572204317365367 66.671148719787595 -21.586401198814652 17.943263429914204 -7.8367975751091441 0.80892902368848973 24.731722595214841 6.209983449268341 -13.106416076660157 -17.283225153142755 16.426881491921165 36.380437098911827 -7.5594357953752782 -12.99444185256958 9.8461088614030317 -23.447581127929688 0.13146520137786863 -18.586239456036768 -15.695070088704426 -3.5898291360704522 11.837776794433593 -19.759986919056285 8.8070596160888677 -14.752207196345093 -10.325774068196614 -4.4151035967740144 -22.925512145996095 -21.190138269372888 3.6744990452853115 -10.53121641739555 -18.207500860040838 -23.589226035771407 -21.958040039062499
leaf_weight=21 37 21 20 32 21 21 20 29 35 34 22 20 25 20 44 33 21 21 32 22 25 24 109 90 38 22 44 20 61 45 33 60 111 22 23 22 127 50
leaf_count=21 37 21 20 32 21 21 20 29 35 34 22 20 25 20 44 33 21 21 32 22 25 24 109 90 38 22 44 20 61 45 33 60 111 22 23 22 127 50
internal_value=-2.62712e-08 -8.94379 222.81 19.9623 -15.7304 13.3199 47.8089 -19.3178 17.2029 -4.5841 -0.521356 24.8242 -1.19904 -10.1618 -16.1105 11.1694 30.6981 -8.33807 -13.9606 4.77651 -22.1764 -4.16364 -17.8266 -17.2787 -5.59534 14.5912 -20.8332 6.57909 -15.8128 -11.4348 -5.6379 -23.2281 -21.6051 2.24171 -11.729 -19.2425 -23.7799 -22.4858
internal_weight=1477 1420 57 270 1150 218 52 870 172 280 162 76 46 118 410 96 41 97 182 66 460 96 228 199 72 55 202 41 105 77 54 258 136 44 43 66 148 110
internal_count=1477 1420 57 270 1150 218 52 870 172 280 162 76 46 118 410 96 41 97 182 66 460 96 228 199 72 55 202 41 105 77 54 258 136 44 43 66 148 110
is_linear=0
shrinkage=0.03


Tree=27
num_leaves=32
num_cat=0
split_feature=26 26 51 42 26 38 26 26 30 38 26 7 26 38 38 38 29 29 52 29 28 42 42 38 48 38 38 28 49 29 51
split_gain=3.09756e+09 3.4102e+08 2.05237e+08 8.77778e+07 5.37305e+07 2.57864e+07 2.8696e+07 8.90671e+06 7.11506e+06 5.05723e+06 4.2535e+06 2.74493e+06 1.34866e+06 1.28056e+06 1.16358e+06 1.09723e+06 929266 858334 615473 611590 465769 374362 350094 269575 205311 162415 128728 127131 99116.5 89865.4 59559.5
threshold=13190.000000000002 2186.666666666667 42.235548079130155 1597.5000000000002 1018.3333333333335 -0.32711759550445929 4629.1666666666679 532.50000000000011 2735.8333333333335 -0.34637169010282459 1641.3333333333337 0.57753766201324352 304.83333333333343 0.042026934002628108 -0.14596670934699102 0.10999720826353997 833.00000000000011 1545.0000000000002 0.30820979510816199 2290.5000000000005 433.50000000000006 -26.499999999999996 237.50000000000003 -0.33479734324704175 204.75 0.07978520544849306 0.025416429549194704 623.50000000000011 0.77683672554469663 675.00000000000011 32.980456470196309
decision_type=2 2 2 2 2 2 2 2 2 2 2 2 2 2 2 2 2 2 2 2 2 2 2 2 2 2 2 2 2 2 2
left_child=1 4 -2 5 7 -3 8 12 13 -6 17 -10 24 -7 20 22 29 25 -19 -17 -9 -18 -12 -14 30 -11 -25 -22 -26 -16 -1
right_child=2 3 -4 -5 9 6 -8 14 11 10 15 -13 23 -15 16 19 21 18 -20 -21 27 -23 -24 26 28 -27 -28 -29 -30 -31 -32
leaf_value=-23.109833562176924 182.46913505554198 -10.386199557231022 306.53672607421873 79.209950747282605 -14.208680095672607 6.411012101817775 49.550919669015066 -21.842660888671872 17.51413349313939 -9.1956185560960026 -2.4396038556780133 27.822747519119925 -22.26752267020089 13.837946540713311 -16.68447967529297 2.384778400527106 -14.771065009622012 -1.3975450990881237 -7.6426123663187031 8.9666425848007201 -17.523917853615497 -11.122383806633225 2.3250297770292865 -19.596117506760816 -22.530015274850946 -6.3588512286017922 -17.980529453314624 -14.686858564104353 -20.725091857910154 -15.014231421242297 -22.057054692318566
leaf_weight=133 30 26 20 23 36 37 28 20 47 39 35 46 21 48 49 27 34 49 20 24 44 99 23 78 38 34 103 21 98 71 76
leaf_count=133 30 26 20 23 36 37 28 20 47 39 35 46 21 48 49 27 34 49 20 24 44 99 23 78 38 34 103 21 98 71 76
internal_value=-1.79492e-08 -8.13231 232.096 23.3084 -14.9731 17.7665 21.3197 -18.631 16.8789 -3.69337 -2.1852 22.613 -20.9968 10.605 -14.8024 2.27228 -13.7821 -5.60677 -3.20771 5.48213 -17.8392 -12.0551 -0.55018 -19.05 -22.1366 -7.87438 -18.6767 -16.6073 -21.2294 -15.6962 -22.727
internal_weight=1477 1427 50 255 1172 232 206 885 178 287 251 93 547 85 338 109 253 142 69 51 85 133 58 202 345 73 181 65 136 120 209
internal_count=1477 1427 50 255 1172 232 206 885 178 287 251 93 547 85 338 109 253 142 69 51 85 133 58 202 345 73 181 65 136 120 209
is_linear=0
shrinkage=0.03


Tree=28
num_leaves=33
num_cat=0
split_feature=26 26 50 39 26 38 26 26 26 38 26 39 39 26 39 39 39 28 46 42 38 26 42 33 39 48 48 44 49 33 21 50
split_gain=2.9145e+09 3.20866e+08 2.01199e+08 8.79839e+07 5.0555e+07 2.46419e+07 3.05394e+07 8.38033e+06 6.08356e+06 4.75835e+06 4.00383e+06 2.61382e+06 1.42671e+06 1.27135e+06 1.14991e+06 1.13337e+06 838744 722923 465916 412291 362238 327615 281366 278284 241416 232396 153605 117567 106295 81669.1 70686.4 68205.9
threshold=13190.000000000002 2186.666666666667 43.548388631188111 1552.0000000000002 1018.3333333333335 -0.32711759550445929 4629.1666666666679 532.50000000000011 2938.5000000000005 -0.34637169010282459 1618.8333333333335 469.50000000000006 394.50000000000006 318.83333333333343 177.50000000000003 259.00000000000006 225.00000000000003 591.50000000000011 670.50000000000011 167.50000000000003 -0.27808934416701964 1242.3333333333337 -15.499999999999998 1050.5000000000002 2.5000000000000004 204.75 884.50000000000011 0.28454519580821186 0.83015945843035821 528.50000000000011 604.00000000000011 33.245282196099254
decision_type=2 2 2 2 2 2 2 2 2 2 2 2 2 2 2 2 2 2 2 2 2 2 2 2 2 2 2 2 2 2 2 2
left_child=1 4 -2 5 7 -3 8 13 12 -6 16 -10 -7 25 17 19 22 20 -17 -12 -9 -18 -11 30 27 31 -19 -15 -27 -26 -16 -1
right_child=2 3 -4 -5 9 6 -8 14 11 10 15 -13 -14 24 23 18 21 26 -20 -21 -22 -23 -24 -25 29 28 -28 -29 -30 -31 -32 -33
leaf_value=-22.467669546274035 175.99691640472412 -10.074613424447866 298.83784643554685 83.014013557434083 -13.782419789632161 7.2841840477550726 48.374165157195065 -19.339221445719399 18.26240563977149 -10.006515842013888 -2.217416956084115 29.4458743625217 14.963231578626131 -18.88263150215149 -13.926395041725852 2.9888252908736463 -5.3412553477287297 -14.300577083439022 9.1886684303283701 2.4822655402549674 -15.868353814641269 -0.67253539531461659 -6.2671265019503508 -9.0877967106212267 -18.176418127441405 -21.602043664320458 -11.94861558244035 -21.517744903564452 -19.945875100528493 -16.45302406778141 -11.572153167724608 -21.349982948786096
leaf_weight=130 30 26 20 20 36 51 31 36 62 27 42 27 38 64 22 24 24 77 20 28 109 31 55 33 50 53 37 20 102 49 24 79
leaf_count=130 30 26 20 20 36 51 31 36 62 27 42 27 38 64 22 24 24 77 20 28 109 31 55 33 50 53 37 20 102 49 24 79
internal_value=7.13343e-08 -7.88834 225.133 22.6092 -14.5239 17.4684 20.8948 -18.0721 16.109 -3.58257 -2.11964 21.6551 10.5629 -20.3669 -14.3583 2.03401 -5.57596 -15.3247 5.80694 -0.337544 -16.7301 -2.7098 -7.49839 -11.19 -18.3271 -21.3924 -13.5372 -19.51 -20.5122 -17.3234 -12.6981 -22.0452
internal_weight=1477 1427 50 255 1172 235 209 885 178 287 251 89 89 547 338 114 137 259 44 70 145 55 82 79 183 364 114 84 155 99 46 209
internal_count=1477 1427 50 255 1172 235 209 885 178 287 251 89 89 547 338 114 137 259 44 70 145 55 82 79 183 364 114 84 155 99 46 209
is_linear=0
shrinkage=0.03


Tree=29
num_leaves=36
num_cat=0
split_feature=26 26 6 39 26 28 64 29 26 39 50 29 48 21 44 39 39 39 28 29 48 28 21 39 44 49 29 64 29 50 29 21 49 28 49
split_gain=2.74225e+09 3.01903e+08 1.93893e+08 8.2784e+07 4.75672e+07 2.036e+07 1.13656e+07 1.32215e+07 7.88863e+06 4.92441e+06 4.51733e+06 3.75647e+06 3.11974e+06 1.76649e+06 1.70657e+06 1.31803e+06 1.20793e+06 1.01825e+06 962911 855610 844391 746362 529759 391521 313047 286965 232854 229871 217803 139596 129615 113173 112505 62092.4 33180
threshold=13190.000000000002 2186.666666666667 11190.693660051604 1552.0000000000002 1018.3333333333335 2816.5000000000005 7434.5000000000009 5659.0000000000009 467.66666666666669 -143.49999999999997 19.595135535392853 1741.0000000000002 4051.8333333333339 2650.5000000000005 0.27251888383660816 11.500000000000002 93.000000000000014 579.00000000000011 984.50000000000011 2071.5000000000005 300.91666666666674 591.50000000000011 658.50000000000011 -68.499999999999986 0.44594473288841685 0.72973617788979583 1374.0000000000002 5157.5000000000009 1050.5000000000002 37.465100066527491 459.00000000000006 861.00000000000011 1.1651987059024516 140.50000000000003 1.264450261581189
decision_type=2 2 2 2 2 2 2 2 2 2 2 2 2 2 2 2 2 2 2 2 2 2 2 2 2 2 2 2 2 2 2 2 2 2 2
left_child=1 4 -2 5 8 9 -7 12 20 14 18 23 -8 17 -3 27 21 -11 -6 -17 29 24 32 -12 -10 -22 -25 -13 -24 33 -27 -23 -18 -1 -31
right_child=2 3 -4 -5 10 6 7 -9 16 13 11 15 -14 -15 -16 19 22 -19 -20 -21 25 31 28 26 -26 30 -28 -29 -30 34 -32 -33 -34 -35 -36
leaf_value=-21.813255494061639 170.14328399658203 6.7084871376261992 290.73329736328128 80.523593247413629 -16.825823277064728 7.693483709335327 19.934640870935777 54.018983459472658 -16.21216766778354 7.503736136036534 -9.6966213684082039 -5.1231645340919494 34.866817840576168 20.523877733018661 -4.3354896497726436 0.23941309565721555 -14.452943058013915 15.32442926324647 -8.111903684234619 6.0108172805786131 -20.968739911247699 -14.362785868742028 -11.17319366455078 -7.6443976867675785 -20.215936248779297 -18.581304786606587 -4.0333294029235844 -1.0472084725986828 -7.3086017717633922 -20.335715380859376 -16.801906759327856 -12.290843602056089 -11.862204603715377 -20.73807453613281 -18.960484954833984
leaf_weight=136 30 34 20 20 21 20 34 20 145 31 25 20 20 27 20 43 48 29 25 50 34 49 35 25 20 101 45 33 21 75 58 46 22 75 20
leaf_count=136 30 34 20 20 21 20 34 20 145 31 25 20 20 27 20 43 48 29 25 50 34 49 35 25 20 101 45 33 21 75 58 46 22 75 20
internal_value=5.38476e-08 -7.65169 218.379 21.9309 -14.0882 16.9443 27.7592 33.1823 -17.5299 9.73438 -3.47509 -1.83075 25.4651 14.1514 2.61813 1.19051 -14.3096 11.2837 -12.09 3.34232 -20.0211 -15.4778 -11.8988 -6.47395 -16.6975 -18.4671 -5.323 -2.58531 -9.72397 -21.0011 -17.9322 -13.3595 -13.6387 -21.4311 -20.0462
internal_weight=1477 1427 50 255 1172 235 94 74 885 141 287 241 54 87 54 146 386 60 46 93 499 260 126 95 165 193 70 53 56 306 159 95 70 211 95
internal_count=1477 1427 50 255 1172 235 94 74 885 141 287 241 54 87 54 146 386 60 46 93 499 260 126 95 165 193 70 53 56 306 159 95 70 211 95
is_linear=0
shrinkage=0.03


Tree=30
num_leaves=41
num_cat=0
split_feature=24 7 26 28 26 48 48 38 26 26 29 50 39 38 48 50 50 29 29 39 48 29 22 21 50 28 29 29 50 32 40 22 39 48 50 29 21 50 29 38
split_gain=2.58732e+09 2.58386e+08 2.44258e+08 4.63335e+07 3.26442e+07 9.7827e+06 9.47068e+06 5.86944e+06 5.46909e+06 4.39387e+06 3.99978e+06 3.28987e+06 2.10232e+06 1.57857e+06 1.19389e+06 1.15202e+06 1.01482e+06 686408 658798 639571 551707 497790 405394 377178 367069 292058 276889 222461 197915 181226 137963 129903 103039 100417 93365.7 62797.6 42436.7 33007.4 23356.9 18898
